//
// Created by wenhan on 2022/3/7.
//

#ifndef CONVNET_LINEAR_CLASSIFIER_H
#define CONVNET_LINEAR_CLASSIFIER_H
int fc_input_size = 256;
int fc_output_size = 5;
int fc_output_size_1 = 9;

float fc_weights[] = {0.16069476f,2.7640386f,-6.6691785f,-0.77810127f,-1.4031541f,1.3481696f,3.7531333f,0.48405161f,-0.7002601f,0.06997429f,3.7699559f,0.631366f,0.983422f,-0.8104472f,-3.1176968f,-0.67157537f,-5.037443f,5.545501f,-6.5659785f,0.5784921f,2.900375f,-0.053641804f,-2.145014f,12.210695f,3.3276992f,-7.057636f,0.17905657f,-1.5679387f,3.1191633f,-1.2381326f,0.606604f,-10.656977f,-0.29330206f,-5.956473f,-1.0075568f,-3.95088f,1.1722724f,2.8880048f,-2.8648517f,-0.0240582f,1.6831145f,-0.1356067f,-0.051960938f,1.587743f,-2.4471622f,1.8378707f,0.7983763f,-9.441949f,3.0185337f,0.38205853f,2.8727598f,-0.44059163f,-2.8384843f,-0.4685655f,0.21639462f,-0.065709524f,-11.712181f,0.6970399f,0.71669984f,3.7995212f,2.6935165f,3.5922978f,2.1557639f,-5.2022967f,2.892138f,-11.814121f,-0.3141869f,-3.073928f,0.7618078f,-2.762788f,2.1993392f,-0.7761277f,2.48635f,-8.907479f,2.017625f,1.6574181f,4.461981f,-6.4294314f,-1.9177065f,-0.14988737f,2.822864f,-10.88817f,0.37893012f,0.9869587f,5.34425f,1.5293945f,-0.44636434f,-9.118013f,3.5036247f,0.27972865f,-0.2716759f,8.70547f,-0.9625097f,-11.59204f,4.351082f,4.7192183f,-0.5488454f,0.40885127f,5.506954f,1.9282882f,-0.14815085f,-1.1916296f,-0.9984727f,-1.2451226f,-0.4861042f,-3.2826521f,-0.6667664f,0.7596193f,0.32913923f,6.721697f,-1.2302634f,-0.2795616f,-10.546413f,0.8487823f,-14.255806f,-6.6911645f,-9.655552f,6.0434055f,-4.5818324f,4.8434067f,0.32970122f,-1.3086435f,-9.08354f,-0.061669234f,0.6654772f,1.9943044f,0.06101682f,3.908361f,-0.66152483f,0.42650566f,-9.602091f,-5.055452f,-2.9044359f,-2.5460525f,-8.283924f,0.5974786f,-0.33558458f,-3.1898692f,0.290335f,3.634881f,0.61205494f,-0.022941962f,-3.5742018f,-14.522914f,0.1584825f,-7.5278735f,-3.6161983f,-9.696704f,-2.954154f,3.4764383f,2.3814096f,-0.9667493f,2.5470836f,-1.3888714f,-4.1522703f,1.8306831f,-5.0162287f,2.5580943f,-1.4244924f,2.3085856f,6.8827114f,-1.7208147f,7.977881f,0.40974194f,2.293968f,0.16670766f,0.43081063f,1.324727f,-0.38425657f,-0.6507754f,2.2713196f,-0.12457414f,1.4837923f,2.1806035f,6.0352006f,-0.65535325f,1.0868845f,-1.0621146f,-10.367864f,1.9314765f,-2.828149f,-0.7378788f,2.0960362f,1.3517208f,-1.7269728f,-4.0387044f,-5.078478f,-1.5907799f,4.979163f,3.7889512f,-3.4040213f,-3.3344004f,2.438714f,6.7034655f,3.9291625f,2.2187629f,0.022741627f,-13.236162f,-1.1219985f,-4.3545523f,1.4799403f,-1.5429357f,-0.73597026f,0.30255017f,1.1142794f,-11.9667225f,1.3609538f,-0.67403495f,2.739608f,-2.3027387f,-1.4393142f,12.2986145f,1.3319618f,-2.5481987f,-0.9021658f,0.31415075f,0.10079555f,1.9571751f,1.9204427f,-6.6757145f,-2.614399f,3.0527227f,-2.4703543f,-7.2929406f,-4.857481f,-8.812744f,2.3071685f,-0.97142226f,-10.05689f,0.48672667f,-1.2490402f,1.9223588f,-2.0809557f,-3.2808032f,7.1628695f,0.78131783f,-0.63509107f,-1.7232682f,-1.2440633f,1.7413243f,-7.436761f,2.9833198f,-3.4371173f,0.86155117f,0.7350432f,-1.4159706f,0.42831898f,0.83617777f,1.110885f,-2.1195116f,-6.2262206f,0.28189826f,3.2023785f,1.3076063f,1.1020705f,-0.009708044f,0.8867462f,-1.4740499f,5.7979217f,1.2470609f,0.9391186f,0.95481473f,-1.5652032f,0.1479489f,3.4040453f,0.95337623f,-4.392013f,-0.77961504f,-3.1551447f,1.6652921f,0.66193503f,0.41437575f,-8.726522f,-7.787832f,-3.4203455f,-0.18105602f,-1.5411891f,-0.5690281f,4.3682137f,-4.994266f,-3.3866198f,-0.5911131f,-0.41689968f,-0.8231787f,-6.7168593f,-0.32886776f,-7.553871f,1.5841551f,0.7374602f,6.1173053f,0.015441637f,2.0873976f,3.118036f,-0.19503962f,0.82410157f,-1.7067711f,-1.2022394f,-0.3481756f,0.35445824f,-8.4889765f,0.9944772f,-1.9903524f,1.9787416f,9.276716f,-6.02396f,0.73704225f,-2.790818f,1.7659359f,2.8319643f,-0.07224506f,-0.11555412f,1.538635f,5.85602f,1.5775057f,0.20285529f,-4.992248f,0.992722f,-0.5389202f,-3.6755435f,6.1245065f,-0.6320597f,1.5244349f,-0.8268887f,1.8045568f,1.5441724f,2.6739042f,-2.1546988f,2.741408f,-0.71041024f,2.7422023f,-2.301163f,-1.1665455f,-1.8544081f,-1.0476519f,-5.5228567f,0.22194509f,-4.7851095f,0.2885188f,-2.4794462f,-0.24398129f,-1.4056073f,-0.14948171f,0.6364606f,8.49468f,-1.5021003f,-0.29781395f,0.6331689f,-7.6483903f,1.7198304f,2.7709076f,-3.1910002f,0.16531765f,0.5661231f,-0.9844841f,-4.678461f,-2.2947967f,-0.2106005f,0.83774954f,-0.19883063f,0.56088126f,-3.5849514f,2.4653902f,-4.840853f,-0.8628347f,-0.17252693f,0.39488098f,-0.5963609f,0.36583906f,1.6151814f,-0.14941691f,-7.672526f,2.0123165f,11.37006f,-4.497317f,3.7427924f,-3.8787599f,1.2806045f,-1.1481419f,4.0510826f,0.6685077f,-1.9388126f,1.5026064f,0.037591502f,-0.10624146f,-2.5410461f,0.64254063f,5.0146017f,4.027278f,3.9600036f,-1.5425655f,2.1993673f,0.38567522f,-0.6682319f,-0.54537547f,-1.1660017f,-1.7914417f,-0.78059405f,1.0764813f,0.6882363f,5.51394f,0.0056876657f,6.5810695f,5.183312f,-1.8826951f,-1.475218f,-3.7965744f,-2.1864045f,0.6461062f,-7.044987f,-0.4408156f,2.4545863f,-1.4032693f,2.5652196f,-1.5637302f,-0.9418545f,-4.1127195f,0.19805911f,0.3896989f,-8.997403f,-0.33786753f,3.1951928f,0.37306872f,-0.77742475f,-0.99713385f,-0.047142196f,0.50860965f,-0.40276664f,3.069849f,-6.49754f,-2.2796466f,3.3519542f,2.4519246f,-0.46064427f,0.15383306f,4.3272343f,-1.4963363f,-0.17859638f,1.8340092f,-1.382778f,0.8913468f,-4.367289f,-2.00131f,-10.959602f,1.131842f,-3.3598714f,-1.9654434f,2.8975997f,2.8231063f,-1.6792021f,-4.0676694f,-2.579344f,-1.4836359f,-4.1421056f,3.4015987f,1.5341316f,2.7584424f,-0.7453713f,-0.6675271f,0.77135324f,-0.11035336f,-1.394382f,4.374338f,-2.2392511f,0.3150247f,-0.6635227f,1.5249982f,0.5195929f,-7.3379574f,-0.7540926f,-0.08563624f,1.0983005f,-3.8387296f,-0.06848365f,-0.98633707f,-1.3999966f,-8.843113f,1.7204604f,-1.2783931f,3.2321854f,4.5250616f,3.8368602f,6.483583f,-2.1337101f,0.18295693f,7.8797026f,-0.07513329f,-0.8349196f,0.65682364f,1.1312281f,6.237303f,-7.15337f,-1.5571584f,-3.9818537f,0.6557486f,1.9657644f,-2.6734536f,5.2373767f,-0.067759134f,2.0447404f,0.61495626f,0.059269868f,2.6235418f,0.9277956f,0.59222037f,-9.474833f,0.9163179f,4.429291f,0.09850834f,-0.24910414f,-0.9557692f,0.18664883f,-0.23794231f,-0.52975863f,0.15206625f,1.4268003f,-1.0245924f,-0.57934225f,-0.37318876f,1.215534f,0.7996006f,0.97862494f,-0.8988791f,0.11329708f,-0.20747611f,1.8065577f,-0.8533708f,-0.64554423f,-0.5302703f,-0.69149554f,2.2789762f,4.9454517f,-0.9153755f,0.774239f,0.19181132f,-1.3228581f,1.3412716f,0.65759224f,1.6772208f,-0.20647885f,-0.8982943f,1.3536189f,-0.5403186f,3.3309414f,-6.3895216f,0.13607286f,0.3671306f,1.8249364f,2.0130155f,-1.0957199f,0.058695477f,-0.25210434f,2.2071617f,0.42713878f,-0.3812719f,-0.7816572f,4.150888f,1.7741538f,1.4522732f,-1.1797276f,1.1291445f,0.6838288f,-0.9851406f,4.8219047f,0.36421943f,-0.8697947f,0.1259149f,-0.45624f,-0.24597932f,-2.0573542f,1.4993604f,0.004502003f,-0.7718481f,-0.48681477f,0.69865453f,0.7961219f,3.768907f,-0.61224055f,2.9341116f,0.5166126f,-0.7223542f,-0.1077727f,-0.009274114f,0.5796186f,0.056556292f,0.4454274f,0.27361837f,0.7570083f,-0.26539952f,0.4271984f,2.199704f,1.4111197f,-0.027937979f,-0.2417875f,1.6551024f,0.5701287f,-0.2915542f,0.2929045f,1.638593f,-0.45606166f,4.652583f,0.59151953f,-0.49626166f,-0.15945034f,4.9580784f,-0.16617912f,-2.2352612f,0.0063031884f,1.7159393f,-0.08349019f,-0.80334723f,1.1098211f,0.13769023f,-1.2885747f,0.43117347f,0.2889618f,0.28342015f,-0.21943916f,0.41635823f,2.352699f,-0.04306828f,0.008076842f,-0.19218446f,-0.2534051f,0.303376f,2.7395241f,-0.3783044f,-0.7621698f,0.07278844f,-1.780745f,1.5649525f,0.867752f,-0.75658005f,-1.0910249f,0.6067291f,3.6689403f,-0.63047564f,-0.16712564f,1.1528463f,-0.83042216f,1.5319748f,2.7984838f,-0.38661036f,2.2788086f,-0.978539f,0.76436293f,-3.1992664f,1.0536547f,-0.4967687f,-0.7526254f,3.0260594f,0.612156f,0.8207428f,0.080684744f,-0.0689001f,-0.87684625f,3.370867f,-0.34909576f,1.3685784f,2.3611033f,3.2025614f,0.273986f,1.3375354f,0.20043124f,-2.5784364f,1.0272899f,0.53179324f,-0.7285205f,0.082252845f,-0.18034768f,0.64724267f,1.2816257f,0.76882964f,2.313129f,-0.1477581f,1.4027003f,-0.27978265f,-0.6990665f,-0.516688f,-0.107443355f,0.37568453f,-1.1721915f,-0.75281006f,-0.49790227f,2.4885032f,4.101736f,0.76441956f,-0.36641777f,0.22069898f,-0.3440787f,-0.7493714f,2.729007f,-0.1377648f,-0.9596892f,-0.29501605f,0.8958801f,0.22585659f,5.4530025f,-0.118534915f,0.321192f,-0.35288832f,0.853f,1.4662502f,-1.1576447f,-0.78215736f,0.45029306f,0.4966952f,-2.1228614f,0.18416965f,0.4375083f,0.8424839f,-0.401772f,1.490375f,-0.18954754f,0.5294746f,-0.086429246f,-0.24869964f,-0.82943106f,4.998716f,0.3516863f,0.70176595f,0.03946892f,-0.07671914f,-0.3080991f,-2.3115485f,-0.2263562f,-1.1773458f,0.27613214f,2.4038749f,0.80170375f,0.15500334f,-0.17749931f,0.12823495f,-0.14982358f,-0.3362204f,0.8583613f,4.3248043f,1.5095062f,5.0068526f,0.9805305f,-0.33430183f,0.48686713f,-0.7240761f,-0.45186555f,0.4097741f,-0.3709842f,3.029915f,0.99470234f,0.26111838f,3.3611977f,-0.52540016f,-0.6418674f,1.4388913f,-1.4530449f,-1.556392f,0.32519078f,0.3147599f,-0.2932592f,-0.71356076f,5.140626f,0.38629556f,-0.08096735f,-1.4490664f,1.7153229f,-0.2252194f,0.26182565f,0.016023627f,0.08520761f,-0.27366188f,0.78011274f,-1.6269294f,0.45687824f,0.68866915f,0.4490319f,-0.116676606f,-1.3212842f,-0.49131238f,1.1181732f,1.0734054f,-1.233306f,-0.4380021f,-2.7514853f,1.093117f,2.3056111f,-0.28899908f,-4.8930073f,-4.3149095f,4.253134f,-2.6569927f,-1.3493476f,0.2928227f,2.548781f,-4.4931426f,-0.9129161f,4.500747f,0.1272283f,0.07732428f,-2.411321f,0.40269f,-2.4983146f,5.9545736f,0.0023943682f,0.90481514f,-1.4580101f,1.9792498f,0.112165086f,-0.721053f,0.6841697f,-0.40437493f,-0.42629638f,-0.33709577f,-0.7903888f,-3.3965423f,-0.18051445f,-0.10799836f,0.07743849f,4.6203146f,-2.3164542f,-6.8311477f,-1.6582931f,0.26188406f,0.98774755f,0.13782135f,-0.09216192f,0.65455157f,6.165804f,1.5602363f,0.0592764f,1.210879f,-0.36422834f,-1.8383604f,-4.906714f,1.8346341f,-1.780141f,6.6847196f,-0.39581972f,1.094257f,0.19516367f,0.9957583f,-1.3710814f,-1.1504838f,-0.63529974f,6.495478f,-1.2255343f,-0.8600031f,-3.0664499f,2.510473f,-0.27321407f,-0.74625206f,-2.6184514f,9.299447f,-1.2447681f,-0.5487398f,-5.004258f,-2.6412308f,0.48734647f,2.3561487f,-8.184704f,0.19757293f,-0.13167745f,-9.449878f,1.1981688f,2.0215237f,-2.806816f,-2.294001f,-0.47377634f,-2.1102571f,-2.840599f,-1.7556942f,2.1823273f,1.2575754f,-2.4724493f,-0.107040904f,-0.9849783f,-2.1540446f,-0.92933285f,-0.22227181f,-0.5895398f,-4.1383233f,-0.76900595f,0.3311342f,4.849642f,0.020527886f,-3.1086261f,3.128682f,2.5073457f,-4.0255632f,1.3048155f,-3.3662915f,0.77736384f,-0.6963264f,2.2597446f,0.6126888f,-0.17526156f,-1.1971428f,-0.2935257f,-0.5154381f,-5.484727f,-0.39453763f,0.80579054f,0.6613566f,0.40435228f,-0.78664154f,3.3335896f,-0.6121617f,0.5479815f,1.215677f,-0.9757533f,-2.7649329f,-0.9417135f,0.21197337f,1.1491429f,7.710396f,-0.9542505f,1.6375638f,2.416164f,7.222814f,2.0489028f,-5.1114736f,0.17853227f,1.8798026f,1.0657766f,0.02677292f,2.0923617f,-1.1253312f,2.9456387f,-0.3732386f,0.9227384f,-1.6484693f,-4.506982f,0.42821726f,-10.5098505f,-0.024737965f,-0.2871237f,0.025738612f,-0.17663826f,0.037138075f,1.9830749f,0.39003608f,-0.24114577f,-4.8283076f,-1.0631938f,-1.8184052f,-5.583673f,1.8417227f,-0.1392567f,1.1825536f,4.11992f,-1.4414172f,1.6949295f,1.182432f,-1.2826844f,-0.049524594f,-0.041586366f,3.2580447f,-3.6065018f,1.3522037f,-4.5822887f,-3.0740402f,1.9510067f,1.5475107f,-0.076654375f,-6.1358685f,1.6018862f,-1.5935078f,-1.186571f,-4.193781f,0.022765318f,0.5736739f,-1.1330744f,0.93844694f,0.52514124f,-0.2898622f,0.4552588f,-1.0773169f,-0.41192168f,0.8766207f,-1.9411377f,1.8521682f,0.55047596f,-6.239087f,-0.50087005f,0.48411492f,-0.3472418f,-2.3974721f,-0.02245646f,-0.82819146f,-0.6903475f,0.87036884f,1.0559137f,0.11361214f,-1.0848856f,5.2509294f,-0.804133f,1.9497975f,-2.7893906f,-0.30955222f,-1.2564381f,-0.16761087f,0.65496767f,-0.630423f,1.6925606f,2.7997987f,-6.274353f,-0.35156405f,-0.7173608f,0.3359539f,1.0058541f,-1.4818199f,5.520637f,-3.998263f,1.6446639f,0.11760254f,-0.39042625f,0.93420434f,4.228323f,-1.9931967f,-3.5003383f,-0.2936546f,3.124531f,0.4844203f,-1.6407717f,-0.44419876f,-0.659694f,0.14110413f,-1.9373536f,-1.5948925f,2.2861257f,-0.36811647f,1.2835747f,-2.250622f,-3.9882643f,-0.8719738f,-4.110529f,-1.357363f,-0.32830176f,0.50103277f,2.7310288f,-1.1886308f,1.9488343f,1.0281315f,12.2045765f,0.98686576f,4.3868594f,2.279934f,-2.2069488f,-0.09986635f,-4.0173926f,-15.066377f,-1.6116526f,4.481782f,-0.003801656f,2.8678448f,2.1498065f,1.8535726f,5.471382f,7.709489f,-0.5233691f,1.223626f,1.4505191f,-0.021720758f,-4.514381f,-3.8454976f,2.6441522f,0.24066144f,-1.5743237f,1.441399f,0.6844945f,4.7552276f,1.7418314f,-1.7031621f,-2.2240567f,-2.9415329f,2.833343f,5.689447f,-4.91213f,-1.6616598f,0.563334f,0.14523955f,-0.18472546f,-2.2227879f,5.4634748f,-5.564021f,-1.455577f,-2.360416f,-4.555441f,-4.025454f,3.7143302f,-3.7113318f,-1.8598251f,3.5137393f,1.3248587f,2.0250285f,-2.9530103f,0.34062177f,0.023542129f,-0.5082132f,-2.8812897f,0.33490327f,-0.08132788f,-0.055442404f,-2.587784f,5.3282275f,6.1381607f,0.7411321f,2.836669f,2.4253535f,2.558126f,-0.9856439f,-2.4504292f,-0.51737607f,0.016832145f,-3.83086f,4.277183f,0.08508351f,0.1514838f,-2.21897f,-1.74725f,9.916247f,-0.8487821f,-6.567556f,0.5180222f,2.9334185f,-3.0416894f,0.37434882f,-1.064417f,-0.8659438f,3.8525608f,1.0018499f,4.718872f,4.4094396f,4.6831093f,0.14430244f,0.2868863f,-7.9121394f,3.2482643f,-0.36850068f,7.2726946f,-1.12162f,14.312628f,4.498796f,-2.3343036f,-2.7478383f,0.14351912f,-0.17549086f,-2.0001633f,3.1378198f,4.4410596f,-1.1879408f,0.91378695f,-4.3093195f,0.5664377f,-7.1771502f,5.805603f,-0.5038585f,6.50935f,3.0388815f,-1.1405892f,5.117795f,5.6580505f,-0.6301707f,0.38705027f,1.8099127f,0.8273372f,-1.9890796f,0.8630254f,-0.9027665f,3.4678745f,8.322592f,1.0080271f,0.5585624f,-5.406298f,4.4705005f,3.180403f,2.0981994f,-2.192011f,0.11342289f,0.57190853f,1.8992616f,1.7069682f,-0.79599404f,1.7691038f,-2.7960706f,0.8252889f,1.1606715f,-9.04036f,1.4879466f,5.0297594f,-0.10674234f,-6.3560805f,-0.37128678f,-0.13856018f,-1.4876359f,-0.8088029f,0.71835524f,-2.7962897f,0.44963887f,1.0287442f,0.15711237f,-8.251624f,-3.7887974f,-1.0084475f,0.574327f,5.3899946f,-0.26633695f,2.7777379f,-1.6970917f,-1.180933f,-3.048275f,2.0797098f,3.647293f,12.342785f,0.091991775f,-1.1537544f,-2.6872663f,0.5154106f,0.5739356f,-2.3660533f,-0.9737417f,-4.4411807f,-0.76598024f,4.645368f,12.628057f,0.19219364f,1.9779279f,0.07623609f,1.5071883f,-0.22868304f,-0.09028654f,-0.2464595f,9.710851f,-0.027174095f,-0.9968824f,-1.8762838f,-0.29487678f,0.8616821f,-11.40501f,-0.24339727f,3.7126634f,0.18821263f,3.627552f,-0.26487607f,-1.3861135f,-0.9010682f,11.142747f,1.0956824f,-4.1282306f,-2.9136455f,-3.11946f,1.8749708f,1.208263f,0.48707035f,1.709257f,6.8539147f,-0.29403588f,1.813941f,-3.7226377f,0.05156839f,-9.36035f,0.8373785f,0.46409327f,2.1949368f,1.8266821f,-1.1565367f,0.16336975f,-3.4915802f,0.3639648f,1.121255f,-2.2500215f,-0.9904672f,-0.8116957f,-11.86616f,-0.46404573f,8.300084f,3.2384856f,0.28740865f,-0.8483649f,-3.4318366f,-0.74105746f,-1.2527214f,0.2018381f};
float fc_bias[] = {-0.5837139f,-0.2289132f,-1.0049808f,0.6032086f,0.9933097f};
#endif //CONVNET_LINEAR_CLASSIFIER_H

float *fc_weights_1 = new float[fc_input_size * fc_output_size_1];
float *fc_bias_1 = new float [fc_output_size_1];
