unsigned int input_channels_0 = 12;
unsigned int input_size_0 = 2048;
unsigned int pad_0 = 4;
unsigned int stride_0 = 2;
unsigned int output_size_0 = 1024;
unsigned int output_channels_0 = 16;
unsigned int filter_length_0 = 11;

unsigned int input_channels_1 = 16;
unsigned int input_size_1 = 1024;
unsigned int pad_1 = 2;
unsigned int stride_1 = 2;
unsigned int output_size_1 = 512;
unsigned int output_channels_1 = 32;
unsigned int filter_length_1 = 7;

unsigned int input_channels_2 = 32;
unsigned int input_size_2 = 512;
unsigned int pad_2 = 1;
unsigned int stride_2 = 2;
unsigned int output_size_2 = 256;
unsigned int output_channels_2 = 64;
unsigned int filter_length_2 = 5;

unsigned int input_channels_3 = 64;
unsigned int input_size_3 = 256;
unsigned int pad_3 = 1;
unsigned int stride_3 = 2;
unsigned int output_size_3 = 128;
unsigned int output_channels_3 = 64;
unsigned int filter_length_3 = 5;

unsigned int input_channels_4 = 64;
unsigned int input_size_4 = 128;
unsigned int pad_4 = 1;
unsigned int stride_4 = 1;
unsigned int output_size_4 = 128;
unsigned int output_channels_4 = 128;
unsigned int filter_length_4 = 3;

unsigned int input_channels_5 = 128;
unsigned int input_size_5 = 128;
unsigned int pad_5 = 1;
unsigned int stride_5 = 1;
unsigned int output_size_5 = 128;
unsigned int output_channels_5 = 256;
unsigned int filter_length_5 = 3;


float conv0_weight[] = {0.058798f,0.033425f,0.134153f,0.107353f,-0.035246f,0.046993f,0.026447f,-0.066091f,-0.086581f,-0.060278f,-0.041712f,-0.010513f,0.096548f,-0.014362f,-0.021430f,-0.046054f,-0.098833f,0.011145f,0.055513f,0.021574f,-0.060697f,0.058191f,0.103931f,-0.008496f,-0.028797f,-0.052134f,-0.027368f,-0.080917f,-0.045486f,0.011733f,0.037150f,0.010875f,-0.038088f,0.029715f,-0.041667f,-0.077615f,0.040418f,0.077035f,-0.010239f,0.017502f,0.013561f,0.036849f,0.139048f,0.069466f,0.085527f,0.131121f,0.048069f,0.071205f,0.103628f,0.112153f,-0.011222f,-0.063763f,-0.004952f,0.051573f,-0.040048f,0.035712f,-0.025059f,0.059884f,-0.062893f,-0.023323f,0.056300f,-0.022408f,-0.016489f,0.003340f,0.025010f,0.065293f,0.234234f,0.248228f,0.196495f,0.109053f,0.009190f,0.072340f,0.037213f,0.071571f,-0.067788f,-0.042106f,-0.017403f,0.155370f,0.211900f,0.115583f,0.098449f,-0.015998f,0.048993f,0.027800f,-0.004850f,0.028263f,0.074911f,0.003222f,0.105726f,0.141920f,-0.031669f,-0.116555f,-0.020538f,-0.015773f,0.026913f,-0.054609f,-0.013701f,-0.095362f,0.033952f,0.071393f,0.168626f,-0.007261f,0.063865f,0.085020f,-0.029381f,-0.135058f,-0.182848f,-0.029892f,0.017824f,0.002658f,0.069893f,0.090102f,0.192338f,0.138379f,-0.029746f,0.007967f,-0.012041f,-0.102088f,-0.171576f,-0.109593f,-0.013937f,0.075105f,0.147293f,0.016794f,0.139245f,0.068724f,0.114295f,-0.085871f,-0.020468f,-0.031838f,-0.010935f,-0.049615f,0.092810f,0.046975f,0.079972f,0.100887f,-0.007042f,0.073714f,0.071418f,0.028031f,0.017901f,-0.051876f,-0.089489f,0.062571f,0.055147f,0.092896f,-0.021034f,-0.087062f,-0.001887f,-0.010915f,0.071297f,-0.082044f,-0.018376f,-0.044750f,-0.103991f,-0.107395f,-0.111807f,-0.180904f,-0.098279f,0.013907f,-0.051007f,0.042127f,0.073716f,0.063898f,0.019449f,-0.099299f,-0.107348f,0.055843f,-0.023841f,-0.116586f,-0.099092f,-0.060889f,0.076885f,-0.043592f,-0.034256f,0.032939f,0.133507f,0.123354f,0.190550f,0.072571f,0.030182f,0.050620f,-0.017625f,0.009731f,-0.008618f,-0.144557f,-0.108413f,-0.036512f,-0.082496f,-0.006730f,-0.001109f,-0.056173f,0.038558f,-0.044215f,-0.034382f,-0.016455f,-0.022774f,-0.042537f,-0.038659f,-0.010228f,0.047581f,0.009669f,0.044659f,0.011495f,-0.134193f,-0.020929f,-0.130157f,-0.069314f,0.129497f,0.190463f,0.158786f,0.031019f,0.059301f,0.138404f,0.032267f,-0.107106f,-0.044106f,-0.004892f,0.051139f,0.000567f,-0.110483f,0.077285f,0.266457f,0.160011f,0.214152f,0.190015f,0.066619f,0.152122f,0.133346f,0.041135f,-0.090470f,0.087660f,0.123618f,0.130766f,0.008619f,-0.081398f,0.058000f,0.005653f,0.098358f,0.171514f,0.039762f,0.040272f,0.023062f,0.007230f,0.049787f,-0.003939f,0.001833f,0.077309f,0.062671f,0.059147f,-0.006032f,-0.021495f,-0.039642f,0.046278f,0.107408f,-0.007415f,0.031272f,0.007777f,-0.022569f,0.073918f,-0.078055f,0.031073f,-0.078046f,-0.102435f,-0.124374f,0.007833f,0.017264f,-0.155034f,0.077317f,0.093918f,-0.040545f,-0.004887f,0.063161f,-0.017179f,-0.032019f,-0.032438f,0.084572f,0.030634f,-0.157930f,-0.080620f,-0.077541f,-0.032934f,-0.083603f,-0.149851f,0.098821f,-0.055145f,0.119277f,0.021981f,-0.068829f,-0.021924f,0.024793f,0.131944f,-0.042517f,0.125400f,-0.123537f,0.081780f,-0.071442f,-0.165246f,0.090977f,-0.139388f,0.181815f,-0.130429f,-0.069669f,0.161671f,0.054719f,-0.113485f,-0.199414f,0.022621f,-0.060861f,-0.055205f,-0.159962f,-0.052939f,-0.031251f,-0.152515f,-0.204386f,0.076741f,-0.084674f,-0.079105f,-0.061205f,0.005112f,-0.028655f,0.129428f,0.024562f,-0.020585f,-0.082637f,-0.134712f,-0.119875f,-0.040750f,0.099131f,0.136297f,-0.022694f,-0.049024f,-0.083787f,-0.026738f,0.058963f,0.031195f,-0.121888f,-0.020949f,0.043117f,0.000168f,-0.109193f,-0.030417f,-0.084075f,-0.065667f,0.043996f,0.061626f,-0.079339f,-0.155028f,0.053581f,0.110583f,-0.137995f,0.020666f,0.079252f,0.006068f,-0.043029f,0.096982f,-0.032021f,-0.089983f,-0.051387f,0.057289f,0.088576f,-0.017492f,-0.012308f,-0.067030f,0.105535f,-0.016166f,0.068636f,0.090186f,0.073764f,-0.157450f,0.082236f,-0.118766f,0.118932f,0.016897f,0.081950f,0.049346f,-0.043632f,-0.010352f,0.037355f,0.036349f,-0.136453f,0.100411f,-0.088908f,-0.015063f,-0.025650f,-0.046713f,0.124187f,-0.058310f,-0.146828f,0.117879f,-0.013734f,-0.007978f,0.026939f,-0.133488f,-0.084503f,0.072036f,-0.013365f,-0.062866f,0.082142f,0.072010f,-0.163713f,-0.030322f,0.062952f,-0.061412f,-0.115509f,-0.010588f,0.083748f,-0.066101f,-0.141223f,0.068162f,-0.046377f,-0.200267f,0.037448f,0.025990f,-0.103531f,0.059710f,-0.042356f,-0.079169f,-0.018998f,-0.011793f,0.131537f,0.042908f,-0.098637f,-0.021900f,-0.087255f,0.048033f,-0.097450f,-0.065221f,0.061978f,-0.001555f,0.009203f,-0.040823f,0.127849f,0.102525f,-0.055279f,-0.025358f,-0.054098f,-0.003357f,-0.028591f,0.098865f,-0.122188f,0.081367f,0.009226f,0.053169f,-0.112668f,0.099777f,-0.087848f,-0.026210f,-0.081240f,0.048702f,-0.107983f,-0.099401f,-0.077594f,0.104299f,-0.074644f,-0.135746f,-0.000951f,-0.150894f,-0.025585f,0.066592f,-0.028768f,-0.108118f,0.076681f,-0.068224f,-0.064999f,0.138204f,0.008678f,0.030417f,0.016622f,-0.026032f,-0.091777f,0.036886f,0.005255f,0.009698f,-0.058880f,0.059095f,0.093522f,-0.146635f,0.086046f,-0.116666f,0.054186f,0.072638f,-0.010470f,-0.055624f,0.007628f,-0.103749f,0.083853f,-0.010774f,-0.141945f,0.067903f,-0.052859f,0.085487f,-0.061348f,0.006717f,0.001765f,0.081898f,-0.095390f,-0.026850f,-0.047496f,0.033519f,0.078940f,-0.140626f,0.007273f,-0.142629f,0.044536f,0.096697f,-0.117247f,0.093511f,0.009726f,0.065050f,-0.118531f,0.067539f,-0.141137f,0.048247f,0.062241f,0.000796f,-0.056705f,0.046957f,-0.108469f,0.038483f,0.026803f,-0.077665f,0.048286f,-0.069621f,0.015432f,-0.086959f,0.040856f,-0.085318f,-0.136505f,-0.091729f,-0.069319f,-0.135017f,-0.076180f,0.089960f,0.019795f,0.132020f,0.164839f,0.116956f,-0.070303f,-0.008588f,0.063163f,0.024227f,0.033270f,0.003757f,0.082973f,-0.007195f,-0.094647f,-0.010474f,0.085644f,-0.007547f,0.021454f,0.029999f,-0.002335f,0.061987f,-0.001570f,0.014330f,-0.063875f,0.076392f,-0.074556f,0.078607f,0.004027f,-0.060851f,0.059600f,-0.005019f,0.034611f,0.041478f,0.090206f,0.007053f,0.069570f,-0.032750f,0.076100f,0.001382f,-0.118235f,-0.124001f,-0.015224f,-0.073424f,-0.095510f,0.114641f,0.029767f,-0.028803f,0.175679f,0.014571f,-0.046071f,-0.027369f,0.101863f,-0.089429f,0.050346f,0.017873f,-0.065197f,-0.025074f,0.002417f,-0.043974f,0.060021f,-0.065323f,-0.039250f,-0.096570f,0.065527f,-0.031655f,0.015962f,-0.008809f,0.113775f,-0.023125f,0.003429f,0.018983f,-0.176432f,-0.095957f,0.044626f,-0.085935f,-0.162271f,0.095215f,-0.024797f,0.003731f,0.012591f,0.023159f,0.023243f,-0.011177f,-0.036417f,-0.161312f,-0.206365f,-0.135678f,-0.046079f,-0.102145f,0.093624f,0.021381f,0.139136f,0.038482f,0.067695f,0.074865f,-0.004631f,-0.237151f,-0.119646f,-0.050231f,0.043711f,0.049244f,-0.063653f,-0.031490f,0.033249f,0.080045f,-0.016380f,-0.006955f,-0.125119f,0.008666f,0.021058f,0.057603f,-0.138621f,0.005590f,0.065644f,0.092796f,-0.019464f,0.085003f,-0.083784f,0.054722f,0.056158f,-0.079232f,-0.081553f,0.014825f,-0.031391f,0.012554f,0.100403f,-0.053485f,0.059773f,0.074268f,0.186058f,0.140336f,0.039775f,0.185891f,0.037925f,0.100842f,0.067249f,-0.046848f,0.055170f,0.013190f,0.028171f,0.075560f,0.054089f,-0.001430f,0.017960f,-0.001964f,0.014385f,0.071136f,-0.068612f,0.057797f,0.042479f,0.061616f,-0.046728f,-0.129032f,0.059003f,0.072932f,-0.028527f,-0.054898f,-0.110913f,-0.097097f,-0.017246f,-0.106389f,-0.099934f,-0.020621f,0.041932f,-0.150764f,-0.147881f,-0.012444f,-0.075419f,-0.008860f,-0.072307f,-0.004287f,0.087400f,0.112181f,0.053555f,0.081041f,0.025869f,0.092164f,0.054951f,0.023254f,-0.029589f,-0.035061f,0.007202f,-0.039863f,0.030777f,0.052266f,0.008294f,0.033759f,0.025255f,-0.052520f,-0.040347f,-0.000306f,-0.081463f,-0.031492f,-0.020284f,0.057763f,-0.024334f,0.005621f,0.035092f,-0.121680f,-0.035310f,0.032333f,-0.067651f,0.086053f,0.107407f,0.106373f,0.083797f,-0.102299f,-0.059847f,-0.034542f,-0.137296f,-0.113008f,0.017879f,0.047835f,-0.027958f,-0.057447f,0.103884f,0.058579f,0.063780f,-0.063140f,0.000181f,-0.095714f,-0.089423f,0.000764f,-0.059463f,-0.141000f,-0.088688f,0.095404f,0.206248f,0.021841f,-0.056339f,0.139228f,0.071015f,0.014697f,0.155121f,0.039608f,0.057831f,0.077047f,0.101122f,0.113412f,0.073489f,0.137770f,0.187889f,0.073062f,0.236042f,0.212378f,0.046775f,0.133572f,-0.045783f,-0.011308f,0.060666f,0.066850f,-0.000162f,0.145479f,0.134593f,0.170115f,0.138437f,0.237952f,0.175462f,0.013526f,0.117951f,0.040910f,0.153270f,0.095650f,0.142247f,-0.075583f,-0.022678f,-0.056025f,-0.046125f,-0.040593f,-0.099170f,0.095715f,0.158433f,0.045354f,-0.035220f,-0.056300f,-0.055384f,0.053916f,0.067680f,0.076635f,-0.081178f,-0.137559f,-0.089964f,-0.105709f,-0.102374f,0.013130f,-0.045687f,0.001174f,0.023497f,-0.092271f,0.056449f,-0.008420f,-0.134585f,-0.220878f,-0.015781f,-0.182385f,-0.101805f,0.051005f,-0.068639f,-0.058671f,0.049972f,0.084499f,-0.071079f,-0.058437f,0.132300f,0.131619f,-0.013546f,0.128592f,0.052075f,-0.044375f,0.045260f,0.000736f,-0.138704f,0.062734f,0.104594f,0.106307f,0.005503f,0.049566f,-0.001819f,-0.038200f,-0.046365f,-0.055990f,-0.027017f,-0.004193f,-0.093514f,-0.149361f,-0.061471f,-0.149688f,-0.075473f,-0.058484f,-0.048630f,0.057010f,-0.101685f,-0.109290f,-0.119942f,0.029947f,-0.113118f,0.018226f,-0.095234f,0.098817f,-0.077008f,-0.031277f,-0.071870f,-0.104047f,0.007369f,-0.056360f,0.088314f,-0.012606f,-0.011121f,0.047768f,0.060651f,0.044104f,0.059900f,-0.109154f,-0.038043f,-0.105229f,-0.072248f,0.082772f,-0.051653f,-0.118959f,-0.060393f,0.012954f,0.039040f,0.038888f,0.029780f,0.037785f,-0.100518f,0.059374f,0.075167f,0.013100f,0.066958f,-0.086348f,0.067780f,0.065372f,-0.034606f,-0.097437f,-0.066889f,-0.016857f,-0.090916f,0.103749f,0.032076f,0.028201f,0.075345f,-0.068580f,0.130129f,-0.067209f,0.094280f,-0.069289f,0.033911f,0.036971f,-0.109900f,0.025433f,-0.030282f,-0.069731f,-0.023579f,-0.016716f,-0.026247f,-0.005766f,0.046038f,-0.099634f,0.016890f,-0.077880f,-0.062229f,0.005049f,-0.063154f,-0.086503f,-0.055528f,0.035833f,0.020256f,0.063335f,0.079663f,0.136475f,-0.026065f,0.057769f,0.003109f,0.034319f,0.014371f,0.027205f,0.065779f,0.120658f,0.057857f,0.012271f,0.029098f,0.058666f,0.048383f,0.164115f,0.212222f,0.014583f,-0.026255f,-0.001142f,0.050824f,0.066285f,-0.025744f,-0.020381f,-0.029031f,0.026563f,0.011177f,0.000680f,-0.017324f,-0.045902f,-0.084544f,0.026090f,-0.037780f,-0.035137f,-0.070479f,-0.054815f,-0.017024f,-0.012050f,0.040805f,0.074305f,0.025864f,0.096648f,0.040923f,0.122517f,0.004087f,0.024519f,0.054145f,-0.015753f,0.056244f,0.057602f,0.072697f,0.010974f,0.089246f,0.136662f,-0.071041f,-0.072384f,0.057356f,-0.072901f,0.007071f,-0.039939f,-0.027429f,-0.117898f,0.142486f,0.032266f,0.201784f,0.056181f,0.106747f,0.044319f,-0.121917f,-0.036434f,-0.122501f,-0.095829f,0.064272f,0.037552f,0.266355f,0.211649f,0.038001f,0.075220f,0.169427f,-0.069516f,-0.112821f,0.010035f,-0.087973f,-0.035170f,0.109186f,0.289356f,0.215945f,0.066659f,0.018762f,0.096429f,0.150961f,0.001503f,-0.153869f,-0.017563f,-0.008354f,0.106212f,0.170463f,0.079064f,-0.022302f,0.014244f,-0.038440f,-0.009602f,-0.079548f,-0.035380f,-0.127703f,-0.057664f,0.024540f,0.010614f,0.063089f,0.101662f,-0.036951f,0.024136f,0.076126f,-0.085360f,0.015286f,0.020334f,0.013218f,0.071272f,0.101381f,0.049596f,-0.015639f,-0.037207f,-0.004430f,-0.126010f,-0.092888f,-0.065778f,0.066759f,-0.065976f,0.052923f,0.042830f,0.083200f,0.022029f,0.065610f,-0.105603f,-0.106755f,0.066254f,-0.060887f,-0.017368f,-0.097834f,-0.032227f,-0.038198f,-0.111661f,-0.085769f,0.109342f,0.026786f,0.110777f,0.119057f,0.141713f,0.075230f,-0.117118f,-0.092544f,0.004575f,-0.143658f,-0.010342f,-0.070626f,-0.037628f,0.108522f,-0.024070f,-0.095547f,0.026827f,0.102205f,0.009620f,-0.010869f,0.184614f,0.034620f,0.012457f,0.052689f,-0.159437f,-0.104083f,-0.057550f,0.037247f,0.002510f,0.061730f,-0.029077f,0.047635f,0.012111f,0.043324f,-0.107057f,-0.041311f,0.089578f,0.044284f,-0.059047f,-0.108613f,0.050055f,-0.018793f,0.034245f,0.005133f,-0.004496f,0.052074f,0.026544f,0.026788f,-0.054985f,0.030216f,0.030845f,-0.071542f,-0.066227f,0.000913f,0.019758f,-0.087154f,0.102179f,-0.042568f,0.044935f,-0.041578f,-0.071804f,-0.030573f,0.139673f,0.102358f,-0.016453f,-0.000917f,-0.005266f,-0.185210f,-0.034177f,-0.000622f,-0.157565f,-0.121044f,0.136839f,0.106404f,0.130771f,0.046534f,0.061466f,-0.072460f,-0.106744f,-0.095876f,-0.056453f,-0.169474f,-0.020762f,0.015654f,0.196776f,0.068073f,-0.058406f,-0.103111f,0.100891f,-0.006906f,-0.124449f,0.054629f,-0.150430f,0.060914f,0.121775f,0.067879f,0.077425f,-0.064633f,0.079321f,-0.033921f,-0.050289f,-0.026665f,-0.052419f,-0.047309f,0.025134f,-0.039784f,-0.147096f,-0.005175f,0.087847f,0.063557f,0.028682f,-0.009605f,0.001033f,-0.026983f,-0.018203f,0.061500f,-0.091704f,-0.038421f,0.078126f,-0.082124f,-0.041041f,0.051530f,-0.000601f,-0.090971f,0.079759f,-0.011143f,-0.046261f,-0.078769f,0.063481f,0.019584f,-0.046063f,-0.078865f,0.035248f,0.123568f,0.060243f,0.057416f,0.122699f,0.079636f,-0.050073f,0.046587f,0.006504f,-0.010820f,-0.086057f,-0.073777f,-0.018685f,0.035857f,0.045389f,-0.042371f,-0.041629f,-0.008671f,-0.063575f,0.126649f,0.060127f,0.027574f,-0.016073f,-0.111583f,-0.019986f,-0.027453f,-0.081798f,-0.025328f,-0.096224f,0.085332f,0.117438f,-0.072779f,-0.079728f,0.068631f,0.037542f,-0.029749f,0.116916f,-0.131528f,-0.070701f,-0.003863f,0.160843f,0.041046f,0.000756f,0.160150f,0.065950f,0.048194f,0.055813f,0.061873f,-0.212962f,-0.213684f,0.041853f,0.018264f,0.151872f,0.210265f,-0.017331f,-0.079924f,0.058833f,0.142137f,0.094058f,-0.024985f,-0.146529f,0.084968f,0.192317f,0.081635f,0.126830f,0.016241f,-0.011637f,-0.020024f,-0.054194f,-0.093666f,-0.046917f,-0.191029f,-0.030788f,0.007041f,-0.011274f,0.027802f,0.065326f,-0.079300f,-0.005196f,0.050990f,0.021123f,0.076092f,-0.149168f,-0.038390f,0.030119f,-0.063334f,0.105493f,0.035197f,0.035376f,0.056771f,0.048966f,0.028703f,0.054213f,-0.090535f,-0.150815f,-0.138690f,-0.045407f,-0.093006f,0.038425f,0.065816f,0.041125f,0.024707f,0.043847f,-0.015643f,-0.004804f,0.041079f,0.011625f,-0.012138f,-0.034356f,-0.005776f,-0.124583f,-0.002544f,-0.110108f,-0.074954f,0.074055f,0.030068f,0.012308f,0.013766f,0.008734f,0.123560f,0.138177f,0.193855f,0.128257f,0.073612f,0.064851f,0.092181f,-0.019348f,0.049856f,0.047735f,0.088844f,0.167481f,0.200467f,0.182217f,0.110994f,0.185830f,0.121965f,-0.030137f,0.062105f,0.091970f,-0.014507f,0.043283f,-0.022187f,0.002367f,0.003942f,-0.052975f,0.006211f,-0.054502f,0.014536f,0.006424f,0.058457f,-0.020519f,0.023815f,-0.182023f,-0.003283f,-0.160288f,-0.159109f,-0.104123f,-0.141784f,0.013424f,-0.006394f,0.092466f,0.066166f,0.149193f,0.156992f,0.212262f,0.212899f,0.118679f,0.141433f,0.071196f,0.159453f,-0.011786f,0.102147f,-0.021684f,-0.057444f,0.085941f,-0.047619f,0.059269f,0.046141f,0.117492f,0.075195f,0.170732f,0.121487f,0.052325f,-0.002164f,-0.001900f,-0.112471f,-0.080775f,-0.128793f,-0.044503f,-0.093716f,-0.035900f,0.109125f,0.043925f,0.028868f,-0.007627f,-0.016872f,0.099070f,0.049158f,0.039261f,-0.041285f,-0.074956f,-0.017272f,0.201720f,0.097110f,0.006945f,-0.008724f,-0.086272f,-0.002257f,-0.018456f,0.106933f,0.057809f,0.088717f,0.049733f,0.067108f,0.096988f,0.105722f,-0.003963f,0.048340f,0.044379f,0.056553f,-0.005037f,0.119360f,-0.065115f,-0.002852f,0.059757f,-0.040041f,0.035609f,0.028652f,-0.046931f,0.110005f,0.049657f,0.063613f,0.034378f,0.037175f,-0.012195f,-0.112332f,-0.118367f,-0.105437f,0.089817f,0.146337f,-0.028516f,-0.036578f,-0.023972f,0.151326f,0.087637f,0.040739f,0.057395f,-0.047920f,0.035827f,0.064229f,0.051755f,0.030482f,-0.036627f,-0.063477f,-0.064207f,0.027816f,-0.029951f,-0.016898f,-0.071785f,-0.019675f,0.018472f,0.008251f,-0.026744f,-0.006983f,0.074133f,0.078384f,0.018504f,0.062071f,0.076167f,0.069172f,-0.072044f,-0.082323f,0.072180f,-0.040073f,0.031592f,-0.041127f,-0.078376f,0.047283f,0.033447f,-0.020802f,-0.018852f,-0.069320f,0.059627f,0.101076f,0.063711f,0.098257f,-0.030563f,-0.023652f,-0.063739f,-0.035411f,0.105478f,0.020654f,-0.083261f,0.004616f,-0.016460f,-0.098241f,0.020920f,-0.058474f,0.031917f,0.094764f,0.021358f,0.010603f,-0.069987f,-0.095953f,0.117996f,0.058769f,0.042288f,0.012065f,-0.046963f,0.081294f,-0.070931f,-0.109879f,0.024174f,-0.000635f,0.147646f,0.105756f,-0.037009f,0.106742f,-0.066961f,-0.020802f,-0.081230f,-0.049873f,-0.143243f,-0.004365f,-0.051509f,-0.123666f,-0.114507f,0.072979f,-0.016909f,0.084522f,0.127839f,0.120172f,-0.046372f,0.067395f,-0.235290f,-0.057043f,-0.077915f,0.010745f,0.029619f,-0.052175f,0.028502f,0.116716f,0.116859f,0.129965f,0.176019f,-0.233468f,-0.272438f,-0.222632f,-0.162171f,0.017720f,-0.099585f,-0.126598f,-0.044681f,-0.055667f,0.199806f,0.137005f,-0.171014f,-0.018465f,0.018214f,-0.012411f,-0.075651f,0.075266f,-0.010848f,0.019248f,0.029738f,0.010012f,0.121179f,0.003016f,0.008641f,0.001649f,0.101014f,0.090821f,-0.069248f,0.005983f,-0.023866f,-0.141837f,0.025903f,-0.016703f,0.000029f,-0.178405f,-0.023110f,0.061275f,0.056023f,0.114650f,-0.062691f,-0.012620f,-0.024169f,-0.003890f,-0.002807f,-0.113441f,-0.116030f,-0.013711f,0.099932f,0.073392f,-0.039306f,0.033597f,-0.128217f,0.023425f,0.030635f,-0.195486f,-0.086331f,0.089522f,-0.151137f,-0.149811f,-0.068012f,-0.198541f,0.000941f,-0.111818f,-0.013910f,-0.113335f,-0.129843f,-0.073776f,-0.022772f,0.019388f,-0.020695f,-0.100976f,-0.103703f,-0.139009f,-0.004761f,-0.039228f,-0.148131f,-0.064123f,-0.113387f,0.053007f,-0.095579f,0.008517f,-0.004535f,-0.021788f,-0.031472f,-0.011088f,-0.013919f,-0.073249f,0.004124f,0.008356f,0.029872f,0.090133f,0.143705f,0.114903f,-0.062381f,-0.132550f,-0.019410f,-0.045438f,-0.074486f,0.062943f,0.002075f,0.040066f,0.226417f,0.113937f,0.108789f,0.040763f,-0.044442f,-0.146942f,0.001200f,-0.005726f,0.039516f,-0.078675f,-0.022274f,0.020641f,0.187871f,0.114642f,0.048263f,0.131826f,-0.093059f,0.033898f,-0.069121f,-0.053568f,-0.091710f,-0.026212f,0.126874f,-0.043663f,0.109065f,0.012816f,-0.006519f,-0.041774f,-0.072828f,0.127534f,0.102581f,-0.050447f,-0.020651f,0.047257f,-0.043823f,0.068723f,-0.046201f,0.029773f,0.034703f,0.022023f,-0.052059f,0.078299f,-0.114963f,-0.010250f,0.095058f,-0.029375f,0.048382f,0.058619f,0.067859f,-0.100356f,0.109390f,0.051729f,-0.041300f,0.014263f,0.027044f,0.104989f,0.151454f,0.159435f,0.030424f,-0.004339f,-0.079623f,0.013121f,-0.002302f,0.003357f,0.069014f,0.065932f,0.124722f,0.166958f,0.186017f,0.068838f,0.053567f,0.000786f,-0.057425f,-0.125544f,-0.061229f,-0.066639f,-0.019976f,0.028936f,0.103890f,0.152572f,0.171600f,0.147511f,0.002896f,-0.102676f,-0.059508f,0.010137f,0.038354f,0.001564f,-0.140230f,-0.200973f,-0.148817f,0.015198f,-0.018466f,0.044566f,0.074240f,0.077276f,0.118283f,0.034370f,0.028839f,0.077262f,-0.037852f,-0.059743f,-0.052654f,0.035706f,0.031307f,0.025196f,0.063811f,0.058580f,-0.025496f,0.055142f,0.063628f,0.193981f,0.173237f,0.098855f,0.121382f,-0.004519f,0.036665f,-0.093915f,-0.027489f,0.160577f,0.108869f,0.025534f,-0.051435f,-0.030658f,0.030613f,-0.048652f,-0.084910f,0.052382f,0.011135f,-0.040012f,0.040250f,0.071915f,0.087328f,0.105045f,-0.037993f,0.006986f,-0.043933f,0.009727f,-0.024099f,0.054176f,-0.064577f,0.008094f,-0.017945f,0.094712f,-0.077920f,0.018122f,-0.050751f,-0.003304f,0.110629f,-0.017215f,-0.082930f,0.085726f,0.010330f,-0.084255f,0.028570f,0.120539f,0.007567f,-0.104036f,-0.020198f,-0.047826f,-0.107713f,-0.057346f,0.016873f,-0.033782f,0.053865f,-0.023300f,0.110708f,0.164032f,0.078850f,-0.098106f,-0.079539f,-0.104705f,-0.155424f,-0.070757f,-0.037323f,0.034651f,0.133364f,0.118014f,0.123340f,-0.001513f,-0.028474f,0.001110f,-0.039466f,-0.119207f,-0.058791f,-0.133346f,-0.117909f,-0.085763f,-0.027020f,0.037572f,0.049657f,0.030665f,-0.019570f,0.037898f,0.074645f,0.192408f,0.005397f,-0.077865f,-0.002442f,0.011421f,0.096971f,0.045133f,-0.015009f,-0.027214f,0.011242f,-0.156756f,-0.061443f,0.087438f,-0.024921f,-0.064846f,-0.023642f,-0.084312f,-0.011957f,-0.051129f,-0.080884f,-0.027951f,-0.114545f,-0.047419f,0.186140f,0.137763f,-0.051868f,0.054423f,0.068274f,0.046781f,0.003822f,-0.010820f,0.091532f,0.149201f,0.011771f,-0.028632f,-0.062814f,0.054710f,0.047510f,0.148831f,0.065151f,0.118349f,0.137310f,0.116638f,0.151310f,0.178596f,-0.031875f,0.011128f,0.016756f,0.037371f,0.051550f,0.024772f,0.064853f,-0.030427f,0.024056f,-0.112411f,-0.015978f,0.018327f,0.085778f,0.008503f,0.009265f,-0.028069f,-0.117281f,-0.032828f,-0.056730f,-0.053202f,-0.104570f,-0.013607f,0.014154f,-0.016729f,0.221005f,0.078606f,0.004115f,0.068001f,-0.080205f,-0.123150f,-0.138248f,-0.147693f,-0.155784f,0.088063f,0.141292f,0.135918f,0.194611f,0.061109f,0.011269f,-0.083921f,-0.068340f,-0.008467f,-0.190631f,-0.025664f,0.028344f,-0.036382f,0.157701f,0.153709f,0.106732f,0.072232f,-0.013858f,-0.074126f,0.005976f,-0.068740f,0.002558f,-0.058851f,0.050547f,0.025054f,0.105080f,0.153205f,-0.011372f,-0.009242f,-0.011283f,-0.015826f,-0.088242f,0.033420f,-0.076344f,-0.052909f,-0.032037f,0.084690f,0.008639f,-0.014432f,0.008422f,-0.035581f,-0.087772f,-0.003068f,-0.009560f,0.055963f,0.051986f,-0.041590f,0.045082f,0.046262f,-0.011092f,-0.116728f,-0.103743f,-0.124175f,-0.024627f,0.020322f,0.114664f,0.153640f,0.182637f,0.086647f,0.091789f,0.065926f,-0.075450f,-0.008026f,0.047816f,0.049979f,0.066297f,0.000097f,0.081296f,0.133317f,0.014336f,0.023396f,0.090650f,0.046154f,0.104413f,0.099348f,0.062228f,0.079471f,-0.070883f,-0.068488f,-0.132586f,-0.112937f,-0.141163f,-0.031633f,0.139875f,0.044487f,-0.047311f,0.025157f,0.038542f,0.010236f,-0.010861f,0.007752f,-0.008862f,-0.064403f,0.010703f,-0.076291f,-0.147794f,-0.110440f,-0.003751f,-0.072530f,0.100671f,0.078467f,0.156914f,0.086062f,0.124683f,0.110154f,-0.004312f,0.063696f,0.057851f,0.050551f,0.070070f,-0.071269f,-0.090110f,-0.099639f,-0.169060f,-0.159102f,-0.022489f,-0.111644f,-0.098380f,0.090921f,0.018586f,-0.033599f,-0.056242f,-0.041913f,-0.020066f,0.051297f,-0.095874f,-0.154635f,-0.012864f,0.049202f,0.026161f,0.188037f,0.178450f,-0.036001f,0.121439f,-0.111644f,-0.003773f,0.058863f,-0.101432f,-0.088103f,-0.077415f,-0.058185f,0.189259f,0.232613f,-0.051772f,0.061915f,0.045966f,-0.006930f,0.097994f,-0.049862f,-0.195290f,-0.119012f,0.016660f,0.038850f,0.073033f,0.079356f,0.034246f,0.110511f,0.062067f,0.084173f,0.082060f,-0.017371f,0.032150f,0.002627f,-0.029139f,-0.079591f,0.021849f,0.101108f,0.004864f,0.140232f,0.142432f,0.024422f,-0.088617f,-0.026690f,-0.052288f,0.042089f,0.052189f};
float conv0_bias[] = {-0.000844f, -0.001957f, 0.001368f, -0.001117f, 0.004062f, 0.004744f, -0.000051f, -0.003102f, 0.000659f, -0.004542f, 0.004365f, 0.004214f, 0.000940f, -0.002179f, -0.002053f, -0.005923f};
float bn0_gamma[] = {0.961629f, 0.983440f, 0.977054f, 1.031854f, 1.006738f, 0.996431f, 1.017618f, 1.027051f, 1.051339f, 0.928956f, 0.942726f, 0.979762f, 0.971599f, 1.019083f, 0.991173f, 0.948906f};
float bn0_beta[] = {0.071537f, 0.211774f, 0.086031f, 0.053769f, -0.019229f, 0.139009f, 0.077005f, 0.168609f, 0.001644f, -0.009752f, 0.110277f, 0.035231f, 0.045750f, 0.084718f, 0.256756f, 0.281598f};
float bn0_mean[] = {0.726682f, 0.430209f, -0.511020f, -0.403304f, -0.150626f, 0.577352f, -0.452534f, 0.652809f, -0.108255f, 0.137220f, 0.939065f, -0.026706f, -0.305419f, 0.498322f, 0.238751f, 0.261564f};
float bn0_var[] = {3.222278f, 3.674453f, 0.574640f, 0.623991f, 1.689750f, 6.287171f, 1.331419f, 4.536455f, 1.266792f, 1.761406f, 4.363078f, 2.929822f, 1.637467f, 2.931050f, 3.028536f, 3.307539f};

float conv1_weight[] = {-0.064888f,0.138585f,0.037914f,-0.054233f,0.042608f,-0.088990f,0.017823f,0.001176f,0.013569f,-0.107185f,0.134342f,0.029933f,0.034102f,0.042679f,0.043326f,0.040605f,-0.033519f,-0.137146f,0.045206f,0.025803f,-0.024631f,0.009961f,-0.004364f,0.087480f,-0.094816f,0.060519f,0.187357f,0.089083f,0.046333f,-0.079857f,-0.064600f,-0.008115f,-0.107830f,0.069118f,-0.072725f,-0.062243f,0.105422f,0.097779f,0.088285f,0.069723f,0.066898f,0.144863f,-0.128919f,0.059971f,0.007699f,0.048075f,0.107442f,0.202553f,0.005764f,0.015189f,0.010424f,0.080103f,-0.123359f,0.057494f,-0.042930f,0.158793f,-0.106827f,-0.054184f,0.105151f,-0.084911f,0.128181f,0.155061f,0.048187f,0.069205f,0.025197f,0.029675f,0.196326f,0.062373f,-0.055925f,0.139179f,-0.126131f,-0.112499f,-0.067308f,0.128246f,0.014155f,0.119422f,-0.005116f,0.086324f,0.167722f,0.047298f,-0.031396f,0.055151f,0.011296f,0.051698f,-0.006140f,0.007356f,0.049978f,-0.012968f,0.115295f,0.021507f,-0.030433f,0.064581f,-0.001352f,-0.037786f,0.039782f,-0.016445f,0.103030f,0.029895f,0.127906f,0.003199f,0.102082f,0.069383f,-0.039775f,-0.077572f,0.078340f,-0.085663f,0.028485f,0.006192f,-0.070336f,0.103205f,0.015418f,0.012970f,0.060517f,0.084560f,-0.014003f,-0.122538f,0.047929f,0.069621f,-0.021099f,0.051927f,-0.027876f,0.036181f,0.045684f,-0.030420f,-0.075208f,0.079545f,-0.168209f,-0.038674f,0.085006f,0.023553f,-0.075319f,0.028274f,-0.114141f,0.019719f,-0.126757f,-0.161450f,0.068142f,-0.141541f,-0.021575f,-0.124096f,0.024062f,0.110559f,0.001149f,-0.068835f,-0.080880f,-0.041196f,-0.092522f,0.047462f,0.069008f,0.063477f,-0.021052f,0.139936f,0.138227f,0.052726f,-0.014825f,0.025839f,0.113313f,0.021299f,-0.071020f,-0.052125f,-0.070285f,-0.055180f,0.060588f,-0.018199f,0.012818f,0.098815f,0.079320f,0.061051f,0.112969f,-0.130932f,-0.148127f,0.016867f,-0.030421f,0.080453f,-0.013252f,0.059673f,0.135386f,-0.020968f,-0.030714f,0.051384f,0.051183f,0.061590f,-0.082570f,0.146814f,0.117896f,-0.012788f,0.153885f,-0.047667f,0.162730f,-0.077989f,-0.050615f,0.087246f,0.111556f,0.080155f,-0.040469f,-0.004105f,-0.030883f,-0.088795f,-0.016994f,-0.150330f,-0.024943f,-0.103914f,0.026450f,0.100410f,-0.045789f,-0.062771f,-0.118324f,-0.053057f,-0.045317f,0.105732f,-0.004614f,-0.079925f,-0.087089f,-0.081701f,-0.093480f,0.022240f,0.142686f,-0.114175f,0.061280f,-0.050663f,-0.105762f,-0.023496f,-0.016853f,0.119134f,0.129849f,0.088401f,-0.086863f,-0.019057f,-0.043119f,-0.054529f,-0.011550f,0.115222f,-0.068768f,-0.033605f,-0.066795f,0.033111f,-0.041273f,-0.019598f,0.092763f,0.084010f,-0.025719f,-0.067977f,-0.063593f,0.007093f,0.022070f,0.120567f,-0.121844f,0.041049f,0.093713f,0.010355f,-0.107757f,0.090078f,-0.069741f,-0.026020f,-0.118161f,-0.074714f,0.003032f,-0.012843f,-0.041274f,-0.024432f,-0.080833f,0.106231f,0.002732f,0.115018f,-0.005190f,0.019575f,-0.086463f,0.004787f,-0.106822f,-0.037155f,-0.018487f,0.105282f,-0.015030f,-0.050325f,0.054735f,-0.031841f,0.019972f,-0.050185f,0.049865f,0.021901f,-0.168268f,-0.158035f,-0.100680f,-0.059130f,-0.057709f,0.009269f,0.151452f,0.013901f,-0.059575f,-0.065154f,-0.110494f,-0.039597f,-0.102523f,-0.132537f,0.017457f,0.137280f,-0.028947f,0.084671f,-0.104012f,0.009917f,-0.073212f,-0.044039f,-0.067302f,-0.022806f,-0.086419f,0.029158f,-0.008751f,-0.106636f,0.083707f,-0.053851f,-0.096561f,-0.087811f,-0.123473f,-0.102029f,-0.026833f,-0.068694f,0.027264f,-0.002319f,0.039759f,0.019575f,0.051239f,0.156577f,0.000730f,-0.042484f,-0.030320f,-0.041289f,0.125258f,0.021704f,0.089137f,-0.081908f,-0.146464f,-0.046497f,-0.108015f,-0.032394f,0.106889f,0.053108f,0.117746f,0.071470f,-0.006255f,-0.015150f,-0.062196f,-0.107235f,0.031338f,-0.042474f,-0.001413f,0.011813f,0.001339f,-0.122347f,-0.035567f,-0.140484f,-0.009769f,-0.107100f,-0.113525f,-0.080431f,0.087135f,-0.126984f,-0.024002f,-0.012048f,0.093012f,0.069946f,0.156797f,0.059560f,-0.069161f,0.001099f,0.061736f,-0.143165f,0.071138f,0.071514f,0.039963f,0.026808f,0.004725f,0.001294f,0.019187f,0.064316f,0.086537f,0.052448f,0.004331f,-0.133240f,0.131488f,0.029427f,0.084247f,0.133371f,0.109157f,0.012669f,-0.043727f,-0.061735f,-0.107169f,0.100437f,-0.001941f,-0.131123f,-0.137927f,-0.147036f,-0.008955f,0.033057f,0.114716f,-0.006134f,0.105282f,-0.028638f,-0.091180f,0.133064f,0.078230f,-0.011203f,0.073573f,-0.129710f,-0.104954f,-0.063622f,0.123848f,-0.054647f,-0.027144f,-0.057010f,-0.035243f,0.085946f,0.005440f,0.008522f,-0.021285f,0.153252f,-0.031742f,0.026406f,0.054234f,-0.081798f,-0.047494f,0.108052f,0.154781f,0.086022f,-0.060959f,-0.155982f,-0.093621f,-0.000679f,-0.039791f,0.209706f,0.049804f,0.045446f,-0.052334f,-0.163939f,-0.135964f,-0.040725f,0.001627f,-0.073973f,-0.052805f,0.069129f,-0.016948f,0.072893f,-0.113741f,0.004037f,0.048606f,-0.142373f,-0.128857f,-0.080534f,-0.117417f,-0.105615f,0.041492f,0.137158f,-0.013171f,0.015431f,-0.062740f,0.108861f,-0.052331f,-0.111039f,0.038228f,0.115668f,-0.083956f,-0.068965f,0.117711f,-0.088142f,-0.024027f,-0.057687f,-0.057922f,0.005680f,-0.061675f,0.106892f,0.008270f,-0.026621f,-0.035334f,0.119361f,0.116068f,-0.128248f,0.012721f,0.019663f,0.026120f,-0.048698f,0.083519f,0.023989f,-0.041449f,0.002072f,0.155137f,0.091675f,0.012644f,0.074639f,-0.127975f,-0.073931f,0.078930f,-0.129665f,-0.013012f,-0.073329f,0.048001f,-0.046237f,0.124974f,0.114289f,0.058147f,-0.030126f,-0.006912f,-0.114571f,-0.032701f,0.101756f,-0.093129f,0.045709f,0.017108f,0.100981f,0.014547f,-0.039005f,0.036250f,-0.026492f,-0.028351f,-0.002637f,0.069611f,0.119705f,0.034923f,-0.050605f,0.041222f,0.004460f,-0.179302f,0.008781f,0.003361f,0.075687f,0.029912f,0.129987f,-0.041069f,-0.023932f,-0.105342f,0.098565f,0.055932f,-0.037136f,0.028952f,-0.061639f,-0.060471f,-0.005910f,0.067694f,-0.060679f,0.020453f,-0.087761f,0.157160f,0.226396f,0.077676f,-0.152181f,-0.080545f,-0.024679f,-0.036509f,-0.018732f,0.015625f,0.023337f,-0.103717f,0.013279f,0.083909f,-0.136759f,0.114147f,0.112994f,0.054350f,-0.042644f,-0.138968f,-0.033530f,-0.035894f,0.094354f,0.106671f,0.102329f,-0.052853f,-0.098480f,-0.056521f,0.006220f,-0.000536f,0.030672f,0.057443f,0.089452f,0.025985f,-0.135108f,0.102162f,0.103984f,-0.126478f,-0.109107f,-0.020927f,-0.137673f,0.137557f,0.058906f,0.084660f,0.084896f,-0.071457f,-0.084551f,0.040863f,-0.123264f,0.104648f,0.015032f,-0.066538f,-0.007726f,-0.003755f,-0.144678f,-0.029540f,0.093178f,0.075855f,-0.104857f,-0.098771f,0.058698f,-0.118270f,-0.105029f,-0.072843f,0.079449f,0.028473f,-0.004508f,0.018153f,0.042573f,-0.112324f,0.058564f,0.094894f,0.085335f,0.049233f,-0.037005f,-0.054394f,0.148360f,0.082818f,-0.029335f,-0.111784f,-0.006746f,0.097332f,-0.093311f,-0.074288f,-0.014425f,-0.060845f,0.005201f,0.012782f,0.058194f,0.026002f,0.052443f,-0.037464f,0.044668f,-0.005864f,-0.099669f,0.106720f,0.023580f,-0.035814f,-0.115581f,-0.025225f,-0.037291f,0.005217f,-0.077683f,-0.084892f,-0.052841f,-0.115038f,-0.008092f,0.023896f,0.037018f,-0.064181f,0.032093f,0.107894f,-0.050081f,-0.097835f,-0.149180f,-0.051675f,-0.078150f,-0.064596f,-0.062881f,-0.031877f,0.079063f,0.029929f,0.036744f,0.022792f,-0.040593f,-0.061367f,-0.086140f,0.006968f,-0.032821f,-0.039821f,-0.069086f,-0.007500f,0.034807f,-0.131720f,0.004017f,-0.052090f,0.084933f,0.097873f,0.069077f,0.008871f,0.117781f,0.036486f,0.012027f,-0.139694f,-0.075072f,-0.062828f,-0.007113f,0.064575f,-0.079395f,0.161688f,-0.089738f,0.069322f,-0.073149f,-0.105972f,0.012859f,0.005196f,-0.084576f,-0.045394f,0.028309f,0.094229f,0.110471f,0.064980f,0.023209f,-0.037754f,-0.002235f,0.080011f,0.145034f,0.134667f,-0.029216f,0.093444f,-0.016432f,0.013645f,0.041473f,0.108967f,-0.070745f,-0.077522f,-0.013074f,-0.014374f,0.016287f,-0.102277f,-0.036174f,0.089960f,0.130517f,-0.065092f,0.097700f,-0.116394f,-0.076412f,-0.038077f,0.087055f,-0.057012f,-0.072674f,0.057054f,-0.055550f,-0.090417f,-0.003603f,0.062243f,0.031784f,0.026978f,0.003610f,-0.057554f,-0.052315f,0.090475f,-0.021779f,0.034406f,-0.000646f,-0.057988f,0.016668f,-0.084214f,0.073761f,-0.071968f,0.015550f,0.067328f,-0.052454f,-0.081516f,0.026479f,0.110150f,0.134787f,-0.078959f,-0.004364f,-0.084191f,-0.081921f,0.009678f,0.129864f,-0.014696f,-0.019009f,-0.018027f,-0.009372f,0.143414f,-0.003898f,-0.042616f,-0.124509f,-0.031740f,0.014137f,0.089813f,0.141993f,0.071135f,-0.199896f,-0.111033f,0.013978f,-0.081042f,0.010841f,-0.090450f,0.093274f,0.086037f,0.043934f,0.000925f,0.062805f,-0.074814f,-0.025582f,-0.081542f,0.074500f,-0.017447f,-0.043599f,-0.027717f,-0.100544f,-0.025680f,0.015592f,-0.125084f,-0.055280f,0.088975f,0.087855f,-0.021998f,-0.046956f,0.081218f,-0.017748f,-0.102254f,-0.018765f,0.022204f,-0.100718f,0.123095f,0.075312f,0.095032f,0.045873f,0.079007f,0.118609f,-0.028684f,-0.001267f,-0.037014f,0.085078f,-0.048527f,-0.095709f,-0.064937f,-0.163309f,0.089116f,-0.117666f,-0.100942f,-0.056216f,0.001565f,0.098164f,-0.073245f,-0.096960f,-0.078847f,-0.049757f,-0.165201f,0.093033f,-0.024100f,-0.096354f,0.058832f,0.029808f,-0.066046f,0.105193f,0.079206f,0.155377f,-0.044016f,-0.084486f,-0.063251f,-0.026441f,-0.050859f,0.065130f,0.084070f,-0.020001f,-0.010300f,-0.033467f,-0.038652f,0.020187f,0.040817f,0.018899f,0.002259f,-0.059625f,-0.046071f,0.026541f,-0.027491f,0.098436f,0.047701f,0.096054f,-0.058848f,0.043624f,-0.005932f,-0.120293f,0.064329f,-0.110999f,-0.111035f,-0.102741f,-0.101902f,-0.153334f,-0.146211f,0.013063f,0.116444f,0.125362f,0.100779f,-0.029246f,0.024102f,0.060984f,0.111855f,0.086262f,0.093031f,-0.053244f,-0.027716f,-0.005624f,-0.071126f,-0.058248f,-0.136867f,-0.057737f,-0.106075f,-0.113752f,-0.022390f,0.087862f,0.047888f,-0.109333f,-0.102654f,0.056188f,0.138287f,0.184074f,0.159611f,-0.096223f,-0.089941f,-0.105541f,-0.078357f,0.053098f,0.116786f,-0.081396f,0.048191f,-0.055935f,0.064000f,-0.008012f,0.114735f,-0.080113f,0.100400f,0.015559f,-0.137969f,0.031965f,-0.147148f,-0.013703f,0.051958f,-0.097591f,-0.054763f,0.056438f,-0.051451f,0.112401f,0.028563f,0.108108f,0.096761f,-0.066491f,-0.146877f,0.071243f,-0.068654f,-0.047573f,-0.057932f,0.035711f,0.067491f,-0.016240f,-0.031913f,-0.152261f,0.000687f,-0.156259f,-0.138745f,-0.112299f,0.015819f,0.008388f,0.106993f,0.085711f,0.095891f,0.064257f,0.010130f,0.051237f,0.087503f,-0.021953f,-0.093148f,-0.018807f,-0.043058f,0.107679f,0.006037f,0.023970f,0.108223f,0.130937f,0.098478f,0.001827f,-0.061210f,0.094422f,-0.003965f,-0.083278f,-0.132162f,0.127261f,0.074591f,0.021431f,0.043093f,0.026311f,-0.023680f,0.044903f,0.057514f,0.026117f,0.057223f,-0.129054f,-0.064778f,0.103455f,0.004476f,0.008055f,0.033803f,0.105329f,-0.030440f,-0.179765f,-0.068557f,0.096521f,-0.044481f,-0.011025f,-0.015781f,-0.022259f,-0.120405f,-0.108989f,0.020538f,-0.075923f,-0.108332f,0.132767f,0.075429f,-0.020060f,-0.033864f,0.032709f,0.095502f,-0.061595f,0.000804f,0.027326f,0.024421f,0.052382f,0.032989f,0.045145f,0.019749f,-0.125184f,0.066073f,-0.045636f,0.074392f,-0.024878f,0.082090f,-0.010936f,0.057772f,0.043995f,-0.012262f,0.000080f,-0.071490f,0.037670f,-0.090036f,-0.119127f,-0.155887f,0.011062f,0.008124f,-0.134773f,0.074892f,-0.033121f,-0.017969f,0.022919f,0.116902f,0.014466f,-0.042431f,-0.040105f,-0.092710f,0.127003f,0.114294f,0.157798f,0.180931f,0.146232f,0.075697f,-0.047883f,0.048306f,-0.003194f,0.119055f,-0.112070f,-0.140726f,0.014641f,-0.101494f,0.179738f,0.081723f,0.077117f,-0.011581f,-0.044703f,0.095644f,-0.002662f,0.009738f,0.091358f,-0.051873f,-0.023496f,-0.154250f,-0.023467f,0.034953f,0.058018f,0.012297f,-0.055047f,0.102617f,-0.011462f,0.090153f,0.138887f,0.101929f,0.061042f,0.022221f,0.086560f,0.139537f,0.004515f,0.048064f,0.061467f,0.006329f,0.045584f,0.044949f,-0.083489f,0.037985f,-0.043170f,-0.092401f,-0.027434f,-0.060879f,0.086266f,0.090298f,0.048143f,0.103052f,-0.153484f,-0.013217f,-0.080248f,0.063145f,0.008184f,-0.008065f,-0.085288f,-0.060469f,0.057800f,0.116324f,0.064564f,-0.062246f,0.136579f,-0.125245f,-0.096142f,0.094174f,0.038234f,-0.005038f,-0.083469f,-0.008179f,-0.055864f,0.106193f,-0.035512f,-0.049616f,-0.080157f,-0.075421f,0.067551f,0.032269f,0.096223f,-0.168092f,-0.117699f,-0.059324f,-0.121608f,-0.092605f,-0.096646f,-0.051429f,-0.161594f,-0.052853f,-0.146239f,-0.137663f,0.079306f,-0.122947f,-0.139984f,-0.133092f,-0.123176f,0.094338f,-0.018847f,0.020498f,-0.014566f,0.047049f,0.073378f,-0.033539f,-0.055505f,0.053302f,0.018395f,-0.072232f,0.125908f,-0.045532f,-0.034447f,-0.083420f,-0.009121f,-0.136905f,0.036776f,0.146939f,-0.006458f,-0.065972f,0.059811f,-0.089696f,0.005150f,-0.051018f,-0.100714f,-0.027377f,0.020885f,0.022246f,-0.043748f,-0.007372f,0.019051f,-0.022619f,0.059366f,-0.045053f,-0.079388f,-0.122738f,-0.116952f,0.007144f,0.022000f,0.153612f,0.074088f,-0.021110f,-0.013843f,0.029126f,-0.004601f,0.144746f,-0.052788f,0.146114f,0.057822f,0.071589f,-0.045652f,-0.026019f,0.056005f,0.024621f,-0.013050f,-0.044787f,-0.091084f,-0.036377f,0.020488f,0.064703f,-0.020322f,-0.004965f,0.010222f,-0.098311f,-0.043242f,-0.090249f,-0.009360f,-0.079778f,0.025958f,0.046813f,0.093122f,0.090160f,-0.100903f,0.047818f,0.058844f,-0.152615f,-0.132865f,0.049708f,-0.035364f,0.032789f,-0.013174f,-0.009459f,0.118852f,-0.064441f,-0.076097f,0.074407f,-0.083036f,0.075455f,-0.001471f,-0.058397f,0.045599f,0.093541f,0.021740f,-0.117127f,-0.067167f,0.010747f,0.047518f,0.019843f,-0.078438f,0.022117f,0.025226f,-0.038291f,-0.026768f,-0.011381f,-0.001196f,0.061509f,0.019256f,0.073345f,-0.020294f,0.000699f,-0.050484f,-0.088303f,-0.017971f,0.031735f,0.139745f,-0.064194f,0.001414f,0.108455f,0.113618f,-0.088566f,0.025424f,0.063426f,0.132992f,-0.075542f,0.027639f,0.037841f,0.018435f,-0.001597f,-0.097447f,0.092702f,-0.054248f,0.123678f,-0.006336f,0.090853f,-0.022619f,-0.089273f,0.035097f,0.127461f,0.007196f,-0.017768f,0.140235f,-0.146559f,-0.100708f,0.091627f,-0.087132f,0.004197f,-0.081012f,-0.084826f,0.072673f,-0.157752f,0.031273f,-0.045775f,0.036101f,-0.030372f,-0.060289f,0.029467f,0.184256f,0.003096f,-0.073009f,-0.042203f,0.060859f,-0.104490f,-0.131775f,-0.068327f,0.048322f,0.062146f,0.038261f,0.073650f,-0.064672f,-0.083656f,0.053994f,0.081275f,0.011343f,-0.034866f,0.071817f,0.060835f,0.061304f,-0.015386f,-0.074771f,0.029451f,0.042889f,0.117246f,0.123311f,0.119887f,-0.160162f,-0.009239f,0.083132f,0.006175f,0.012902f,0.084196f,0.050614f,0.077320f,0.119000f,0.138105f,0.072858f,-0.118368f,-0.029856f,0.087509f,0.065678f,0.049797f,0.101426f,-0.048044f,0.143081f,-0.100433f,-0.050021f,0.064917f,0.153367f,0.120825f,0.183837f,-0.071625f,-0.030085f,0.005029f,0.016059f,0.023979f,0.144184f,-0.070701f,-0.065118f,0.010297f,-0.056676f,0.011819f,0.099612f,-0.039585f,0.058009f,0.065278f,0.026298f,0.044968f,-0.023249f,0.034994f,0.070122f,0.085092f,0.003664f,0.036342f,-0.167387f,-0.220715f,-0.027428f,-0.028419f,-0.046654f,0.065790f,-0.009022f,-0.043543f,-0.058925f,0.112903f,0.035408f,-0.077546f,0.107323f,0.019344f,-0.114314f,0.003675f,0.093274f,0.062724f,-0.021637f,-0.107349f,0.073122f,-0.038336f,0.014243f,0.001489f,-0.031835f,0.000250f,0.145272f,0.035378f,0.013234f,-0.043717f,-0.094348f,0.144916f,0.126984f,0.067290f,0.025732f,0.074911f,0.113697f,-0.050424f,-0.034729f,-0.026154f,-0.022845f,0.026846f,0.002477f,-0.123811f,0.027009f,0.042023f,-0.008432f,0.001852f,0.037531f,0.048877f,0.099806f,0.120464f,0.119035f,0.123350f,-0.055564f,0.045703f,0.079271f,0.063833f,-0.024048f,0.033499f,0.054354f,0.068361f,0.011871f,0.116869f,0.084817f,0.109738f,0.105474f,-0.074607f,-0.018615f,-0.045681f,-0.009642f,-0.013223f,0.076457f,-0.024616f,0.137863f,0.115548f,0.025888f,-0.083911f,-0.096183f,0.033562f,-0.037322f,0.064902f,0.035356f,-0.091925f,0.086591f,-0.074925f,-0.036132f,0.088407f,0.049011f,-0.060513f,-0.006839f,-0.038968f,-0.088636f,-0.068347f,-0.034507f,-0.039473f,0.091313f,0.108395f,0.123500f,0.056611f,-0.021671f,-0.082084f,-0.003064f,-0.031948f,-0.041057f,0.090856f,0.116129f,-0.053682f,-0.022138f,0.118747f,0.226649f,0.169000f,0.102908f,0.056096f,-0.030676f,0.019613f,-0.014183f,-0.049096f,-0.062838f,0.078100f,0.041335f,0.007100f,0.030750f,-0.117554f,-0.023216f,0.085156f,-0.110258f,-0.035741f,-0.106666f,0.093842f,-0.077463f,-0.094449f,0.015420f,-0.067009f,0.116515f,0.071950f,-0.042415f,0.013458f,0.051069f,0.105877f,-0.047702f,0.085804f,-0.083056f,0.010515f,0.119591f,0.135867f,0.008191f,-0.006908f,-0.109700f,0.151076f,0.000559f,-0.051865f,-0.062027f,0.112984f,0.007523f,0.018563f,0.007124f,-0.044894f,0.162000f,0.138217f,0.028310f,-0.049063f,-0.078261f,0.001981f,-0.107102f,0.030910f,-0.096486f,-0.099155f,-0.026064f,0.036038f,-0.022064f,0.093752f,-0.052056f,0.004354f,0.053158f,-0.017066f,0.128698f,-0.047516f,0.001085f,0.028219f,-0.050337f,0.015595f,-0.045707f,-0.052985f,0.074930f,0.008032f,-0.103528f,-0.002450f,0.134960f,-0.016858f,-0.016678f,-0.007853f,0.048466f,-0.063706f,-0.047288f,0.037848f,0.058962f,0.053904f,0.040519f,-0.003046f,-0.010624f,-0.070831f,-0.035780f,-0.035671f,0.140273f,-0.073352f,0.075188f,-0.124190f,-0.039633f,-0.081502f,0.011875f,0.028309f,-0.027618f,-0.079902f,-0.060811f,0.033604f,0.125271f,-0.063416f,-0.027258f,0.077917f,0.108386f,-0.109691f,0.019752f,-0.020346f,-0.028899f,-0.007114f,-0.018126f,-0.026665f,0.049906f,0.136453f,-0.065735f,0.025326f,-0.112689f,0.130698f,0.158851f,0.124988f,-0.079774f,-0.107689f,0.038347f,-0.065981f,-0.063088f,-0.033131f,-0.014597f,-0.130276f,-0.143566f,-0.004745f,0.004461f,0.002301f,0.018241f,0.022376f,0.104070f,0.083249f,-0.095860f,-0.059174f,0.064437f,0.094596f,0.081172f,0.156112f,0.138563f,-0.016860f,0.078878f,-0.059959f,0.008005f,0.039236f,-0.100431f,0.072239f,-0.072634f,-0.045255f,0.130968f,0.136132f,0.012239f,-0.078941f,-0.085715f,0.038960f,-0.041270f,0.000673f,-0.132096f,0.059723f,-0.084425f,-0.050240f,-0.005446f,0.074598f,-0.047446f,0.057743f,-0.087959f,-0.070926f,0.082463f,0.085018f,0.017182f,0.055711f,0.096141f,0.063911f,-0.065081f,-0.004105f,-0.105851f,-0.029135f,0.013584f,-0.040115f,0.009812f,0.014446f,0.100594f,0.145795f,0.100768f,0.127102f,0.003110f,-0.032833f,0.026206f,-0.051870f,-0.099005f,-0.134994f,0.031127f,-0.000334f,-0.077392f,-0.105960f,-0.140083f,-0.051725f,-0.073451f,0.109841f,0.082202f,0.013649f,0.059046f,-0.022952f,-0.047854f,-0.066187f,-0.001945f,0.103970f,0.053877f,-0.084528f,0.053653f,-0.050214f,-0.243783f,0.117792f,0.093654f,-0.005949f,0.120655f,-0.007838f,0.066380f,0.204332f,0.039033f,0.062059f,0.083269f,-0.060477f,0.080032f,0.031957f,-0.047107f,0.110596f,0.075790f,-0.001841f,0.020878f,-0.057352f,0.047344f,0.068570f,-0.059454f,-0.113626f,0.113979f,0.119680f,0.096831f,0.115285f,0.089839f,-0.083373f,-0.027243f,0.031412f,0.088208f,0.061640f,0.093788f,-0.075523f,0.087487f,-0.079597f,0.070870f,0.061826f,-0.006716f,0.148905f,0.072881f,-0.099378f,0.045668f,-0.085711f,0.111689f,0.065761f,-0.049921f,0.112003f,-0.041602f,0.003897f,0.071481f,-0.113848f,0.124770f,0.148551f,-0.033896f,0.015209f,0.099031f,0.056764f,-0.067057f,0.099368f,-0.033376f,0.092756f,-0.072053f,0.062969f,0.098612f,-0.004947f,0.079471f,-0.072496f,0.090689f,0.090546f,0.174649f,-0.059871f,-0.079302f,0.031167f,-0.031704f,0.000150f,-0.170834f,0.030115f,-0.067254f,-0.103468f,0.047893f,0.099014f,0.118301f,0.095395f,0.117283f,0.151102f,0.068789f,0.077407f,0.077529f,0.038942f,0.031085f,0.135252f,0.112829f,0.010235f,-0.109913f,-0.053424f,-0.137413f,0.052588f,-0.032775f,-0.105037f,0.074945f,-0.040787f,0.064228f,-0.094012f,0.016670f,-0.042466f,-0.079894f,0.063856f,0.030003f,-0.015470f,0.055506f,-0.097143f,0.009415f,-0.056408f,0.010287f,0.057206f,-0.029405f,0.013648f,0.141549f,0.132375f,-0.016095f,-0.082129f,0.026648f,-0.098084f,0.003385f,0.114617f,0.035768f,0.026703f,0.024554f,-0.139754f,-0.039018f,0.009252f,0.073736f,0.019168f,-0.087770f,-0.032719f,-0.066356f,-0.048300f,0.007964f,0.132278f,0.051787f,0.070039f,0.041318f,-0.118582f,-0.073784f,-0.113399f,-0.094809f,-0.044845f,0.004559f,0.010338f,-0.053628f,-0.028593f,0.046613f,-0.042981f,-0.025737f,-0.055746f,-0.012316f,0.089724f,0.015606f,0.020174f,0.011159f,-0.050017f,-0.130618f,-0.106871f,0.053400f,-0.033487f,-0.086631f,0.030814f,-0.110321f,-0.101204f,-0.076140f,-0.108819f,0.080451f,0.085337f,0.068775f,-0.016525f,0.057285f,-0.036277f,0.059041f,0.044590f,-0.066708f,0.013240f,0.073116f,-0.020044f,-0.002260f,-0.046304f,0.009779f,-0.155401f,0.065289f,-0.008568f,-0.137350f,-0.025352f,-0.010993f,0.042737f,-0.040441f,0.036526f,-0.044055f,-0.090704f,-0.011972f,0.051143f,0.089028f,0.073457f,0.079125f,0.048700f,-0.065582f,-0.059535f,-0.005746f,-0.021381f,-0.005244f,-0.063284f,-0.034446f,-0.063992f,-0.041612f,0.066813f,-0.014290f,-0.005729f,-0.001074f,0.002686f,-0.115287f,-0.034692f,-0.127928f,-0.037348f,-0.080718f,-0.007833f,-0.076363f,0.105663f,0.000883f,-0.117718f,-0.028571f,0.085383f,-0.023963f,-0.004175f,0.161447f,0.115377f,-0.053108f,0.115862f,0.068783f,0.047046f,0.017429f,-0.029197f,-0.119372f,-0.021765f,-0.105802f,-0.094008f,0.019282f,-0.152795f,0.065436f,-0.099870f,0.084992f,0.069890f,0.074695f,-0.127502f,-0.117559f,-0.039301f,0.071000f,-0.097465f,-0.127805f,-0.121906f,-0.070240f,0.008566f,0.103376f,0.034509f,-0.016871f,-0.082117f,0.016776f,-0.055143f,-0.077088f,-0.053912f,0.000294f,-0.093605f,0.017693f,-0.113146f,-0.020561f,-0.028945f,-0.045918f,0.068328f,-0.080042f,0.066964f,0.002807f,0.100423f,-0.075072f,0.014595f,0.027435f,-0.006248f,-0.073630f,0.044931f,0.061005f,-0.092145f,-0.136510f,-0.088144f,-0.105240f,-0.144895f,-0.107373f,0.119344f,0.126454f,-0.051437f,0.068443f,-0.045368f,0.081280f,-0.034584f,0.044240f,0.019392f,-0.058564f,0.004580f,-0.121355f,-0.095260f,-0.093128f,0.008751f,-0.073973f,-0.078416f,0.059908f,-0.111335f,0.025623f,0.136082f,0.090824f,0.110531f,0.150702f,0.154595f,0.104811f,-0.006932f,0.064366f,-0.078396f,-0.090149f,0.056401f,-0.019525f,-0.060025f,0.032812f,-0.001161f,-0.044125f,-0.082296f,-0.091403f,0.071895f,0.108677f,0.084589f,-0.084891f,-0.065224f,-0.192345f,-0.165460f,0.048113f,-0.039468f,-0.059096f,-0.166507f,0.018786f,-0.038149f,0.116896f,0.132141f,-0.094391f,-0.029175f,-0.033527f,-0.022244f,0.064398f,0.097053f,0.057442f,0.013781f,0.032918f,0.061225f,-0.039381f,0.041405f,0.052682f,0.001010f,0.048958f,-0.018592f,0.034322f,-0.137508f,-0.048238f,-0.010487f,-0.129696f,-0.140479f,-0.134222f,-0.021713f,0.012873f,-0.039542f,0.026908f,0.024119f,-0.021580f,-0.006491f,-0.038278f,0.089931f,0.089386f,-0.057831f,-0.016674f,0.007825f,0.032355f,0.033558f,-0.134981f,-0.068667f,-0.132707f,-0.188344f,-0.175314f,-0.189292f,-0.029382f,0.044407f,0.074931f,0.018077f,0.038301f,0.093789f,0.103708f,-0.109970f,-0.026202f,0.057949f,0.122508f,0.001164f,-0.032762f,-0.032521f,0.002681f,-0.121006f,-0.044761f,-0.010141f,-0.106212f,0.050535f,-0.040986f,0.008647f,0.076040f,0.017598f,0.012718f,-0.027127f,0.009234f,0.007216f,-0.079302f,-0.090748f,-0.108428f,0.029591f,0.040712f,-0.115025f,0.046846f,0.018723f,-0.010061f,-0.070754f,-0.068608f,-0.129861f,-0.032840f,0.086873f,0.050432f,0.051498f,-0.035640f,-0.135081f,-0.011370f,0.052541f,0.166447f,0.165566f,0.083950f,0.045085f,-0.002280f,0.012194f,0.074021f,-0.029959f,-0.105947f,0.134560f,-0.042337f,0.068379f,0.007553f,-0.106037f,-0.010482f,0.064297f,-0.121527f,-0.007705f,0.080398f,-0.004765f,0.029537f,-0.012209f,0.110399f,-0.019266f,-0.103473f,0.093024f,0.055797f,-0.052161f,0.150007f,0.011989f,0.006892f,-0.013792f,-0.018166f,-0.000052f,-0.024390f,-0.030786f,0.179083f,-0.014054f,-0.066178f,-0.143884f,-0.083039f,-0.105529f,-0.125877f,0.036246f,-0.097974f,0.039881f,0.034812f,0.032766f,-0.092708f,0.003826f,0.104696f,0.062290f,0.095867f,-0.123878f,-0.063443f,0.069068f,-0.064407f,-0.069453f,-0.065987f,-0.120368f,-0.024570f,0.100514f,0.045188f,0.037973f,0.004471f,0.012730f,-0.012866f,0.094607f,0.113306f,-0.105243f,-0.009285f,0.106994f,-0.054369f,-0.014862f,-0.102660f,-0.119204f,-0.115217f,-0.008047f,0.073587f,0.041127f,-0.163844f,0.046674f,-0.072513f,-0.035179f,0.064653f,0.039950f,0.035230f,-0.066231f,-0.080500f,-0.035917f,0.100074f,-0.037755f,0.102538f,-0.053162f,-0.076885f,0.056793f,0.030973f,-0.044040f,0.032728f,-0.046434f,0.060274f,0.035775f,-0.075146f,0.041861f,-0.017897f,-0.010173f,0.069068f,-0.108419f,-0.001311f,0.022061f,-0.124136f,-0.059141f,-0.051387f,0.071717f,-0.085093f,-0.077292f,0.160527f,-0.058782f,0.158319f,0.026811f,0.037814f,-0.003842f,-0.068064f,-0.057028f,0.001478f,-0.122949f,-0.134190f,0.070675f,-0.071025f,-0.096888f,-0.044601f,0.063610f,-0.045849f,-0.073602f,0.154387f,-0.007136f,0.067115f,0.033581f,-0.117938f,-0.112555f,-0.078940f,0.052070f,0.093186f,0.030531f,-0.123646f,0.091339f,-0.021159f,-0.025583f,0.084050f,0.081457f,0.014711f,-0.104034f,0.136541f,0.147598f,0.027668f,-0.009989f,0.049487f,-0.090870f,0.049902f,0.152559f,0.112580f,0.064122f,-0.009988f,-0.036607f,-0.076639f,0.050432f,-0.001262f,-0.056653f,-0.100892f,-0.001474f,0.056742f,-0.049518f,-0.047419f,0.108346f,0.065312f,0.068179f,0.033004f,0.015677f,0.156785f,0.127883f,0.099879f,0.069196f,-0.049866f,0.075833f,0.148439f,-0.018996f,-0.094170f,0.042420f,-0.064059f,-0.045377f,-0.036452f,0.070962f,-0.095213f,-0.069815f,0.022869f,-0.009022f,-0.116716f,-0.015946f,0.119545f,-0.033297f,-0.001192f,-0.078464f,-0.037650f,-0.105908f,0.123405f,-0.105297f,-0.024037f,-0.162287f,-0.128542f,-0.134881f,-0.080070f,-0.152839f,0.000900f,0.086489f,-0.058693f,-0.116981f,0.085249f,-0.116415f,0.045816f,-0.073599f,-0.039211f,0.052109f,0.092783f,-0.114780f,-0.071829f,0.103056f,-0.076265f,0.029316f,0.103917f,0.034483f,-0.024449f,0.057915f,0.100238f,-0.054026f,0.061954f,-0.101575f,-0.096728f,0.009569f,-0.006827f,0.089488f,-0.119831f,0.049075f,0.094146f,0.023822f,0.064739f,-0.087433f,0.081307f,0.046133f,0.008909f,0.051298f,-0.014345f,-0.095392f,-0.093505f,0.021546f,-0.081172f,-0.034587f,-0.092876f,-0.087147f,-0.103606f,0.036508f,0.053983f,-0.023114f,-0.000306f,-0.009208f,-0.060574f,0.100821f,-0.017767f,0.174802f,0.013601f,0.140109f,0.120497f,-0.213611f,0.057506f,0.044797f,-0.087906f,0.129054f,-0.040852f,-0.012447f,-0.062113f,-0.103764f,0.070450f,-0.041011f,0.009444f,0.020268f,0.108984f,-0.094675f,0.085941f,-0.005346f,0.058238f,0.015085f,0.057326f,-0.087962f,0.024555f,0.034367f,-0.008727f,-0.069928f,0.054251f,-0.024369f,-0.118072f,-0.061821f,0.008207f,0.002409f,-0.110172f,-0.044651f,-0.128083f,-0.064118f,0.059534f,0.062356f,-0.007940f,-0.005605f,0.069903f,-0.029682f,-0.040868f,0.096094f,-0.059728f,0.068543f,-0.046705f,-0.112006f,0.071502f,-0.025781f,-0.083838f,0.033117f,0.048525f,0.141147f,0.069476f,-0.068166f,0.134852f,-0.048170f,0.041615f,0.077759f,0.103502f,0.050905f,0.051011f,0.013235f,-0.030991f,0.018704f,-0.097675f,-0.106716f,0.049788f,0.144031f,0.156881f,0.108779f,-0.044669f,0.081616f,-0.013745f,-0.072719f,0.058977f,0.103593f,0.029234f,0.085279f,0.137710f,0.034958f,-0.009825f,0.032513f,0.028244f,-0.040052f,0.131440f,0.087844f,0.109317f,0.073851f,-0.061708f,0.004717f,0.130018f,0.095401f,0.101423f,0.024120f,0.119070f,0.012936f,-0.099049f,-0.121419f,-0.138765f,0.037273f,-0.047505f,0.006175f,-0.019440f,-0.054852f,-0.016466f,-0.015181f,0.054322f,0.034915f,0.024370f,-0.000607f,-0.059051f,-0.091971f,-0.066475f,0.141417f,-0.060215f,0.014846f,0.015998f,-0.014586f,-0.017686f,-0.143907f,0.042803f,-0.135843f,-0.047178f,0.089560f,0.110144f,-0.046657f,0.007248f,0.090380f,0.011871f,-0.078601f,0.060605f,0.002052f,-0.025629f,0.066427f,-0.006682f,-0.101641f,-0.074791f,-0.089965f,0.023200f,-0.031933f,0.070034f,-0.079017f,-0.105396f,-0.112347f,0.008255f,-0.005972f,0.099279f,0.028551f,0.137248f,-0.020577f,-0.031851f,-0.056247f,0.067444f,0.040747f,0.027105f,-0.120704f,-0.130700f,0.005967f,-0.106922f,0.011628f,-0.041802f,-0.147589f,-0.092440f,0.050169f,0.119621f,0.103756f,0.057273f,0.024107f,-0.039211f,-0.046273f,-0.101156f,0.014839f,-0.089371f,-0.081870f,-0.040029f,0.070441f,-0.064365f,-0.008146f,-0.110968f,-0.090343f,0.106742f,-0.112065f,0.089278f,-0.047484f,-0.107901f,0.084859f,0.082679f,-0.048589f,0.050552f,0.090718f,-0.115147f,0.011809f,0.070505f,0.021956f,-0.040486f,0.138202f,-0.030157f,0.104815f,-0.040308f,0.051556f,0.146365f,0.066234f,0.124882f,0.022350f,-0.091504f,-0.060229f,0.051255f,0.115681f,-0.009936f,0.136423f,0.072656f,-0.101617f,0.061364f,-0.021952f,0.067548f,-0.080162f,-0.047434f,0.053281f,-0.084540f,-0.093866f,-0.126152f,-0.147961f,-0.085915f,-0.086204f,-0.142613f,0.020767f,-0.043372f,-0.014495f,0.002015f,0.085149f,-0.098262f,0.019203f,0.000525f,-0.043204f,0.077916f,0.115145f,0.117521f,-0.053633f,-0.090737f,-0.154981f,-0.174792f,-0.107783f,-0.020492f,0.031863f,-0.115691f,-0.023179f,-0.064252f,-0.199362f,0.036776f,-0.015776f,-0.074475f,-0.004990f,-0.059224f,0.038875f,-0.086534f,-0.030448f,-0.014343f,0.098052f,0.132167f,0.121976f,0.101004f,-0.058382f,0.157720f,0.103787f,0.048288f,0.122802f,-0.007520f,0.014854f,0.054950f,-0.068654f,0.064515f,0.040485f,-0.109923f,-0.060097f,0.058440f,0.068388f,-0.017481f,-0.126557f,-0.092374f,0.057902f,-0.040946f,0.007440f,0.137133f,-0.131651f,-0.008874f,-0.094017f,-0.040907f,0.117541f,-0.009790f,0.101162f,-0.161176f,0.014200f,0.002658f,-0.009277f,-0.025174f,0.131127f,0.091045f,-0.090183f,0.136871f,0.166615f,-0.005672f,-0.044628f,-0.032687f,-0.063399f,0.009889f,0.171307f,0.104916f,0.086421f,0.115493f,-0.069551f,-0.215954f,0.061431f,0.017619f,-0.060499f,-0.092509f,0.061007f,0.080829f,0.029038f,-0.001321f,-0.095506f,0.064502f,-0.109789f,-0.051029f,-0.027818f,-0.146860f,0.059307f,-0.002326f,0.082599f,0.004341f,-0.036103f,0.126327f,0.021391f,0.116914f,-0.087349f,-0.055647f,0.038084f,-0.056172f,0.078424f,0.029049f,0.033676f,0.121622f,0.074157f,0.065133f,-0.116640f,0.013344f,-0.021197f,-0.019280f,-0.018394f,0.070228f,-0.036322f,0.041352f,-0.148647f,-0.070453f,0.042427f,-0.014020f,-0.109034f,-0.030317f,0.023297f,0.151554f,-0.089318f,0.006319f,0.095434f,-0.081321f,-0.005988f,0.007408f,0.079836f,-0.084319f,0.077944f,0.158219f,0.070864f,0.084167f,-0.097788f,-0.092771f,-0.120528f,-0.053044f,-0.066634f,0.072953f,0.072018f,0.011394f,0.057508f,-0.136908f,0.067955f,0.030143f,0.002573f,-0.020483f,-0.010144f,0.066989f,0.163215f,-0.085653f,0.020980f,-0.013369f,-0.071879f,0.044802f,-0.049148f,0.046490f,0.001463f,-0.167856f,0.035415f,-0.124263f,0.027635f,-0.115972f,-0.065918f,-0.104058f,-0.055047f,-0.076762f,-0.075903f,-0.093150f,0.027441f,-0.107631f,-0.099068f,-0.102076f,-0.186700f,-0.070656f,0.044097f,-0.042800f,-0.000302f,-0.105336f,-0.044058f,0.084568f,0.061442f,-0.057913f,-0.030429f,0.066475f,-0.058492f,0.072707f,0.153485f,-0.053664f,0.035861f,0.018010f,0.046926f,-0.083621f,-0.027306f,-0.074323f,-0.057107f,-0.080831f,0.112187f,0.068792f,-0.106710f,0.002328f,0.028905f,-0.097842f,-0.028458f,0.069622f,0.007805f,0.003424f,-0.018561f,-0.049029f,-0.080107f,-0.153600f,0.042360f,-0.037043f,-0.154870f,-0.121218f,-0.153040f,0.046389f,-0.133088f,0.015751f,-0.060586f,-0.152667f,-0.137167f,-0.165647f,-0.179759f,-0.135326f,-0.040138f,-0.021853f,-0.111966f,-0.071266f,-0.073818f,-0.074120f,-0.071993f,0.040662f,0.078663f,0.054594f,-0.070823f,-0.097883f,0.067054f,0.040312f,0.055626f,0.056782f,0.075832f,0.127752f,-0.018330f,-0.140675f,0.098243f,0.060404f,-0.064883f,-0.100202f,0.031035f,0.007620f,-0.139103f,-0.003876f,-0.110316f,-0.105257f,0.148815f,-0.008550f,-0.041951f,0.186365f,0.075725f,0.134392f,0.041297f,0.088825f,0.108503f,0.103829f,0.108563f,-0.057099f,0.143871f,0.034954f,0.073755f,0.027668f,0.111328f,-0.014561f,-0.144234f,0.053586f,0.000399f,-0.136420f,0.010652f,-0.112676f,-0.004996f,0.140477f,-0.102217f,-0.090441f,0.065269f,-0.023998f,0.118249f,0.047175f,-0.106567f,0.071247f,-0.011675f,-0.056227f,-0.121115f,-0.018211f,0.017487f,0.086621f,-0.053429f,0.076456f,-0.116774f,0.107804f,-0.084639f,-0.111376f,0.062845f,0.019071f,-0.084251f,-0.019735f,0.035053f,0.028947f,0.009454f,0.095826f,-0.107016f,-0.074644f,-0.134596f,-0.088003f,0.112019f,0.026984f,-0.034772f,0.062234f,-0.048327f,0.016074f,-0.007210f,-0.067935f,0.031678f,0.013672f,-0.030059f,0.060919f,-0.009430f,-0.079974f,-0.054307f,0.059778f,-0.091917f,0.102685f,0.006627f,0.007375f,-0.069042f,-0.101755f,-0.087998f,0.122784f,0.076732f,0.019265f,0.058868f,-0.083206f,-0.148576f,-0.099366f,0.013089f,0.059550f,-0.124997f,0.119216f,0.016073f,0.098679f,0.247736f,0.159423f,0.124082f,-0.004462f,-0.029813f,0.015006f,-0.037337f,0.032911f,0.071568f,0.122156f,0.036318f,-0.018071f,0.077774f,0.110142f,0.072415f,-0.043459f,-0.056995f,-0.052076f,0.044720f,0.051223f,-0.037683f,0.023335f,0.017967f,-0.058337f,-0.060002f,-0.120320f,0.072515f,0.138715f,0.094660f,0.040433f,-0.031870f,-0.091196f,0.031403f,0.083404f,-0.064697f,-0.091334f,0.035193f,-0.018318f,0.060199f,0.073068f,-0.001352f,0.059398f,-0.085351f,-0.051022f,-0.057946f,0.082583f,-0.022985f,0.101441f,-0.121792f,0.047865f,0.117642f,-0.021435f,-0.167216f,-0.053943f,-0.102069f,0.045265f,0.147144f,0.013208f,0.004064f,-0.062082f,-0.009390f,-0.093366f,0.041178f,0.088723f,0.091778f,-0.116391f,-0.009933f,-0.036516f,0.161039f,-0.102617f,-0.175486f,-0.023951f,0.077662f,0.055344f,0.065057f,0.153977f,0.144637f,-0.073016f,0.022586f,-0.101577f,-0.124668f,-0.065796f,0.102007f,0.065082f,-0.060466f,-0.038646f,-0.020040f,-0.027919f,-0.128912f,0.073112f,0.006145f,0.070747f,0.035239f,-0.014599f,-0.023331f,-0.075608f,-0.014855f,-0.018370f,-0.083742f,0.007048f,0.085041f,0.075234f,0.022180f,0.065157f,-0.009333f,0.060347f,0.023338f,-0.050269f,-0.117461f,0.075164f,-0.121332f,-0.008074f,0.004282f,-0.056093f,0.103271f,0.066852f,0.023433f,0.161607f,0.168302f,0.043019f,-0.135911f,-0.156977f,-0.107672f,-0.081696f,-0.075599f,0.118276f,0.062226f,-0.098787f,0.076887f,-0.041771f,0.056890f,0.082963f,0.097602f,-0.037668f,0.089920f,-0.069032f,-0.098497f,0.079538f,-0.029063f,-0.072197f,0.084375f,0.156520f,-0.023587f,0.143362f,-0.085251f,0.000054f,0.026472f,0.031299f,0.041828f,0.071089f,-0.066741f,-0.030150f,0.082515f,-0.102592f,-0.035167f,-0.110738f,0.119987f,0.119475f,-0.084823f,-0.057763f,-0.033634f,0.023605f,-0.134898f,-0.168758f,0.064721f,-0.156343f,-0.165571f,-0.104876f,-0.147126f,-0.106984f,-0.045048f,-0.058609f,-0.152378f,-0.120313f,-0.022639f,-0.085561f,-0.144289f,0.075596f,0.076650f,-0.032773f,0.055286f,0.023035f,0.089049f,-0.043310f,0.169403f,0.114365f,-0.127749f,-0.086654f,-0.028809f,-0.151946f,-0.026237f,0.047614f,-0.049607f,0.051020f,0.041332f,0.007856f,0.047590f,0.007417f,0.097440f,0.083079f,-0.106366f,0.013448f,0.107944f,-0.092582f,0.076505f,0.120839f,-0.018137f,0.046728f,-0.000617f,0.073000f,0.114371f,0.085453f,0.001984f,0.127413f,-0.136809f,-0.134604f,-0.020202f,-0.114583f,0.063643f,-0.014877f,0.052449f,0.034484f,0.075196f,-0.020905f,0.084878f,0.056520f,-0.048214f,-0.008178f,-0.064056f,0.013928f,-0.002611f,-0.099009f,-0.056569f,0.076832f,0.068343f,-0.058873f,-0.051771f,0.065802f,-0.107441f,-0.068641f,-0.116512f,-0.090386f,0.061734f,0.066331f,-0.017474f,-0.138426f,-0.150719f,-0.015136f,0.157096f,0.051172f,-0.095382f,-0.092700f,-0.026807f,-0.066185f,0.117217f,0.150084f,-0.051924f,-0.111933f,0.049217f,-0.078866f,-0.008733f,0.046727f,-0.040555f,-0.022011f,0.040373f,0.110134f,0.095006f,0.109792f,-0.040996f,-0.109682f,-0.068407f,-0.022619f,-0.126483f,0.097683f,-0.051623f,-0.039630f,0.058147f,-0.000937f,-0.053342f,0.054345f,0.015164f,0.008535f,-0.075901f,-0.021631f,-0.051157f,-0.104012f,0.084090f,-0.033546f,0.008077f,0.040814f,0.048854f,0.018068f,-0.066432f,-0.163282f,-0.092273f,0.124371f,0.032085f,0.052677f,-0.076978f,-0.059047f,0.087318f,0.157368f,0.075340f,0.001158f,-0.087931f,-0.002853f,-0.082126f,0.009120f,0.066425f,0.104529f,-0.004517f,0.001249f,0.086416f,-0.066207f,0.069745f,-0.045997f,-0.117170f,0.068746f,0.055787f,0.014985f,-0.026353f,-0.011072f,-0.056540f,0.030947f,0.054666f,0.021189f,0.005092f,0.113448f,0.109407f,-0.170412f,-0.029949f,-0.075633f,0.061466f,0.047544f,0.131240f,0.047366f,-0.143991f,-0.125405f,0.007863f,-0.058937f,0.046046f,-0.031967f,-0.114525f,-0.024603f,-0.094841f,0.099958f,0.165812f,-0.032818f,-0.069334f,0.140011f,0.141813f,0.011417f,0.010465f,-0.082651f,-0.047041f,0.096990f,0.111809f,0.021981f,0.051822f,-0.078863f,-0.062125f,0.040720f,0.073765f,0.164041f,0.080004f,0.009791f,0.025089f,-0.136911f,0.025872f,0.086560f,0.091064f,-0.069546f,-0.106512f,-0.016044f,-0.008839f,-0.127577f,0.011737f,-0.022886f,0.004490f,-0.146415f,-0.123068f,-0.003098f,-0.083382f,0.051660f,-0.088084f,-0.013327f,-0.008532f,0.066366f,0.005367f,-0.107903f,0.076789f,-0.012505f,-0.028111f,-0.024375f,-0.083125f,0.071290f,0.001061f,0.029682f,0.139308f,-0.024230f,-0.049676f,0.052104f,-0.004963f,0.050931f,0.121785f,0.035046f,0.128346f,-0.092108f,-0.020822f,-0.073629f,0.051130f,0.048487f,0.121036f,0.026903f,0.124702f,0.090999f,0.029818f,-0.075526f,-0.091092f,0.097505f,0.066513f,-0.078662f,-0.039982f,0.022404f,-0.013476f,0.080068f,0.078877f,0.224072f,0.168157f,0.047713f,0.100790f,-0.092223f,-0.015983f,-0.100321f,0.011462f,0.016050f,-0.090686f,-0.050279f,-0.008303f,0.068553f,-0.072652f,0.019142f,0.012963f,-0.035299f,0.061735f,-0.115890f,-0.070011f,0.107219f,0.058781f,0.060169f,0.106187f,-0.054995f,0.014156f,-0.053800f,0.014064f,-0.094159f,-0.134499f,0.027916f,0.107396f,0.051888f,0.068886f,0.078891f,0.017417f,0.043717f,-0.009363f,0.051275f,0.095980f,-0.056386f,0.120329f,0.090666f,0.104053f,0.012820f,-0.188481f,-0.074673f,0.039552f,0.104437f,-0.105653f,0.070185f,0.107149f,-0.072658f,0.028159f,0.036774f,0.086224f,0.032314f,-0.037310f,0.067530f,0.044352f,0.065022f,-0.063352f,-0.009556f,-0.030290f,0.066513f,-0.075536f,-0.058003f,-0.082967f,0.000187f,0.042131f,0.007253f,-0.031985f,0.011740f,-0.004228f,-0.060192f,0.048078f,0.080399f,-0.037834f,-0.037410f,0.021023f,0.012860f,-0.108554f,-0.025578f,-0.021587f,0.031123f,-0.011657f,0.081077f,-0.009114f,0.117048f,0.010904f,-0.022783f,0.071404f,-0.064625f,-0.055035f,-0.130974f,0.173078f,0.146654f,-0.071560f,0.064496f,0.126827f,0.012631f,0.101034f,-0.037327f,0.034429f,0.065925f,-0.038885f,0.109569f,0.175457f,0.019644f,0.125897f,-0.120817f,-0.092376f,-0.005663f,-0.063614f,0.032383f,-0.029242f,0.045718f,-0.058229f,-0.040574f,0.036783f,-0.025752f,0.075885f,-0.026789f,0.002831f,-0.094380f,-0.021396f,-0.043629f,-0.013637f,-0.078981f,-0.046327f,-0.028274f,0.076892f,-0.055262f,0.149880f,-0.014698f,-0.188471f,-0.097960f,0.086794f,-0.047425f,0.052713f,0.179054f,0.051869f,-0.094299f,-0.056740f,0.131796f,-0.097258f,0.021909f,0.054515f,0.044998f,-0.000635f,-0.106595f};
float conv1_bias[] = {0.000420f,-0.001142f,0.005265f,0.001021f,0.001761f,-0.004025f,0.000266f,-0.001054f,-0.003034f,-0.002169f,0.003900f,0.000480f,0.000920f,0.002232f,0.000201f,0.000147f,-0.003102f,0.003472f,0.001650f,-0.001150f,-0.003205f,-0.000503f,0.002710f,-0.002942f,-0.000847f,-0.002523f,-0.003368f,-0.003757f,-0.003004f,0.004119f,-0.003228f,0.000701f};
float bn1_gamma[] = {1.002760f,0.991336f,1.047272f,0.989063f,1.069261f,1.006332f,1.016455f,1.053488f,0.970638f,0.981561f,1.016859f,0.985020f,0.949200f,0.963403f,0.919911f,0.968524f,1.094407f,1.011343f,1.024066f,0.960557f,0.939202f,0.979072f,0.955005f,0.999585f,0.948129f,1.011957f,0.964993f,1.088793f,1.005089f,1.050067f,0.976887f,1.008256f};
float bn1_beta[] = {-0.001310f,0.025165f,0.015014f,0.008471f,-0.060847f,0.147188f,0.034656f,0.177753f,0.154804f,0.049000f,-0.074598f,0.066059f,0.032581f,0.024523f,0.064459f,0.015234f,0.056620f,0.054195f,0.039502f,0.017032f,0.020516f,-0.009699f,0.029764f,0.092492f,-0.032705f,-0.004999f,0.046483f,-0.045107f,0.227735f,-0.006392f,0.103875f,0.016179f};
float bn1_mean[] = {0.870009f,-0.049892f,-0.302386f,-0.324570f,0.054337f,-0.293137f,0.062011f,-0.438061f,-0.114405f,0.470741f,-0.738476f,0.392291f,0.658802f,0.225593f,0.032324f,0.461027f,-0.052748f,-0.603279f,0.009542f,-0.073746f,-0.069897f,-0.418044f,0.326120f,0.038691f,0.035844f,-1.032853f,0.487583f,0.039616f,-0.259765f,-0.003150f,0.416446f,0.158515f};
float bn1_var[] = {1.331171f,1.040871f,0.708518f,0.950142f,0.377822f,0.334635f,0.426203f,1.172354f,0.665384f,0.779483f,0.822197f,0.600230f,0.686547f,0.279535f,0.284502f,0.582052f,0.918370f,0.675053f,0.875012f,0.579522f,0.265376f,0.401019f,0.463862f,0.711377f,0.479104f,1.328160f,0.561791f,0.632996f,1.148530f,0.379227f,0.829131f,0.500664f};

float conv2_weight[] = {0.103952f,-0.059250f,0.105823f,0.123182f,0.023924f,-0.046128f,0.113666f,-0.046633f,-0.080952f,-0.073769f,0.022990f,0.083854f,0.134120f,-0.053861f,0.025429f,-0.015706f,0.000304f,-0.096840f,-0.003857f,0.048205f,-0.025726f,-0.076668f,0.018135f,-0.070463f,0.018788f,0.030648f,-0.095293f,0.035047f,-0.081505f,-0.070814f,0.010067f,-0.002731f,0.070155f,0.097525f,-0.022669f,0.105114f,-0.009614f,0.135563f,0.084650f,-0.005026f,0.095797f,-0.066713f,0.020991f,-0.027119f,-0.073871f,-0.018119f,-0.079174f,0.023835f,-0.014549f,0.038497f,0.089029f,-0.068389f,-0.081816f,0.030930f,-0.003488f,0.023159f,0.036578f,0.093267f,-0.049815f,0.020418f,-0.074781f,0.078669f,0.100436f,0.041773f,-0.052486f,-0.028415f,0.075829f,0.105891f,-0.021406f,0.056881f,0.044808f,0.006107f,0.037628f,0.071020f,0.084571f,-0.131749f,0.063811f,0.027455f,0.079033f,0.093703f,-0.004758f,-0.068219f,0.095678f,0.000347f,-0.064196f,-0.024408f,0.093658f,0.023424f,-0.024664f,0.073226f,0.035216f,-0.097858f,-0.081126f,0.067890f,-0.088234f,0.107661f,0.064399f,-0.031672f,-0.028152f,-0.067743f,-0.046853f,0.070037f,0.049959f,-0.100082f,-0.107871f,-0.044263f,0.063376f,0.037420f,0.028561f,0.073052f,0.050058f,0.088182f,-0.084390f,0.020519f,0.034125f,0.135642f,0.039148f,0.008332f,0.059575f,0.090762f,-0.033124f,0.019444f,-0.037634f,-0.108169f,-0.020274f,-0.067717f,-0.076267f,0.035470f,-0.098731f,-0.034481f,-0.067500f,-0.028245f,0.002956f,-0.044858f,-0.076087f,-0.030051f,0.080166f,-0.003130f,0.086463f,-0.052997f,0.089705f,-0.074461f,0.046221f,0.081359f,-0.021887f,0.021686f,-0.016960f,0.003205f,-0.062645f,-0.099629f,-0.020520f,-0.115969f,-0.079205f,-0.060204f,0.049592f,0.052040f,-0.040630f,-0.032911f,0.034755f,0.003267f,-0.060637f,0.035024f,0.071977f,0.055938f,0.086982f,0.093106f,-0.016966f,0.049806f,0.000645f,0.101738f,-0.106760f,0.004218f,0.012391f,0.028154f,0.071237f,-0.030056f,0.014666f,-0.000600f,0.035999f,-0.040916f,0.032740f,-0.065247f,-0.150449f,-0.074765f,-0.053401f,-0.040243f,0.017661f,0.050001f,0.009666f,-0.016396f,-0.061633f,-0.170298f,-0.160271f,-0.181346f,-0.054587f,-0.114116f,0.081027f,0.106765f,0.081177f,0.053716f,-0.106465f,-0.052528f,0.012445f,0.046069f,-0.058994f,-0.055865f,-0.053725f,0.049985f,-0.040464f,0.014205f,-0.115983f,0.091394f,0.087829f,0.050256f,0.042850f,0.030920f,-0.080936f,0.075536f,-0.007302f,-0.046237f,-0.075205f,0.047437f,-0.044467f,0.054895f,-0.002231f,0.051279f,-0.028708f,0.019423f,0.000124f,-0.050349f,0.025900f,0.071702f,0.030200f,0.043174f,0.014619f,0.045342f,0.121876f,0.039115f,0.090987f,-0.044921f,-0.035722f,0.028244f,0.096169f,-0.054205f,-0.021940f,0.036135f,0.059545f,-0.022240f,-0.079907f,0.004044f,0.104623f,-0.005460f,0.091403f,-0.053625f,-0.089987f,0.098395f,0.019119f,-0.092047f,-0.112174f,0.069464f,0.068118f,0.019778f,-0.042348f,0.085422f,0.049347f,0.029029f,-0.022290f,-0.072465f,-0.073409f,-0.084839f,-0.082360f,0.029661f,-0.028507f,-0.028616f,0.040271f,0.010518f,-0.051780f,-0.006856f,-0.035147f,-0.021413f,0.046108f,0.011372f,-0.109959f,-0.095588f,-0.117190f,0.074431f,-0.093014f,0.072421f,-0.092613f,0.013547f,-0.016518f,-0.049275f,-0.077451f,0.085260f,0.078414f,-0.106386f,0.037637f,-0.004845f,-0.030244f,-0.002180f,0.018334f,0.113328f,-0.089692f,0.067282f,-0.010221f,-0.010840f,-0.153664f,-0.227216f,-0.263163f,-0.156685f,0.034751f,-0.020068f,-0.089597f,-0.066895f,0.044076f,0.010685f,0.020727f,0.038895f,-0.046706f,-0.054703f,0.034335f,-0.058777f,-0.059660f,0.101215f,-0.007735f,-0.116732f,0.013004f,0.112465f,-0.095345f,0.034566f,0.155240f,0.077006f,0.061039f,0.022128f,-0.057036f,0.029864f,0.045996f,-0.058796f,-0.032768f,0.022118f,-0.015903f,0.052534f,-0.028381f,0.093206f,0.087739f,0.056311f,-0.156195f,-0.119396f,-0.074355f,-0.014400f,0.057133f,0.044766f,0.033722f,0.069796f,-0.091450f,-0.037251f,0.100220f,-0.014946f,0.073004f,0.024978f,0.048786f,-0.003463f,-0.108747f,-0.053109f,-0.005925f,-0.113859f,-0.076581f,-0.052139f,-0.047582f,0.015303f,-0.007402f,0.081308f,-0.050564f,0.033273f,0.147885f,-0.014116f,-0.021411f,-0.066233f,0.055254f,-0.079213f,-0.120881f,0.005288f,-0.045335f,-0.064432f,-0.008675f,-0.025359f,0.074450f,0.110718f,0.058827f,0.041387f,-0.081130f,0.084144f,0.084505f,-0.005067f,-0.101309f,0.057528f,-0.103581f,-0.036745f,0.013106f,-0.012516f,0.037565f,0.061800f,0.072641f,-0.034516f,-0.030009f,-0.085688f,0.045121f,-0.074505f,-0.064007f,0.005928f,-0.099881f,0.004265f,-0.032956f,-0.050425f,0.093989f,-0.088113f,-0.010568f,-0.078528f,0.037200f,0.059473f,-0.032265f,0.010927f,-0.103898f,0.012042f,-0.082745f,-0.028793f,0.095532f,0.037429f,0.033317f,-0.050475f,-0.012674f,0.012665f,-0.046327f,0.029977f,-0.055136f,-0.071242f,0.069755f,-0.011143f,0.066638f,-0.012589f,0.012924f,-0.033462f,-0.057382f,-0.066343f,-0.051869f,-0.020075f,0.104603f,0.060552f,-0.067097f,-0.002531f,0.041003f,0.001616f,0.028905f,0.062396f,-0.035880f,-0.141164f,-0.155883f,-0.105745f,-0.039165f,-0.076619f,-0.037497f,-0.029450f,-0.041201f,-0.018658f,-0.085392f,-0.016783f,0.075360f,0.026953f,-0.078742f,-0.118256f,-0.087941f,-0.067099f,0.030164f,0.115789f,-0.017917f,0.000355f,-0.001322f,-0.068176f,-0.048656f,0.095371f,0.031784f,-0.060811f,-0.075807f,-0.071543f,0.016483f,0.001210f,-0.064361f,0.112842f,0.083627f,0.067053f,-0.049739f,-0.054495f,0.088317f,0.129106f,0.042592f,-0.083856f,0.002592f,0.023724f,-0.017258f,-0.075436f,-0.036323f,-0.068286f,-0.005375f,-0.094801f,0.056206f,-0.147096f,-0.009968f,-0.081253f,-0.026738f,-0.064198f,-0.059185f,-0.054995f,-0.038046f,-0.040849f,0.046517f,0.035553f,0.013820f,-0.033594f,0.103282f,0.072117f,-0.062906f,0.005902f,-0.003553f,-0.062180f,-0.035024f,0.099658f,-0.102013f,-0.115713f,-0.043198f,-0.027269f,-0.075656f,0.069511f,0.096834f,0.118626f,0.068483f,0.005395f,-0.065556f,0.005748f,-0.033412f,-0.094097f,0.012416f,0.050847f,-0.081130f,0.001060f,-0.058491f,0.128072f,-0.003287f,-0.052083f,-0.082551f,-0.009421f,-0.049062f,-0.103645f,0.064729f,0.008565f,0.061790f,-0.096839f,0.064325f,-0.023301f,-0.001908f,0.082953f,-0.051614f,0.049442f,0.007889f,-0.035645f,0.144687f,0.030324f,-0.093449f,-0.079484f,0.075302f,0.115030f,0.074540f,0.033757f,0.051419f,-0.078089f,-0.041644f,0.101757f,0.052740f,-0.036428f,0.021539f,0.083310f,-0.076920f,-0.024027f,-0.000398f,-0.018949f,-0.079889f,0.078581f,0.078737f,0.018586f,-0.073254f,0.100711f,0.110574f,0.111169f,0.029879f,0.130229f,-0.079666f,-0.013371f,-0.069191f,-0.012740f,0.026253f,-0.034720f,0.096959f,0.059313f,-0.022043f,-0.044200f,-0.049549f,-0.109067f,0.049539f,0.036527f,0.013569f,0.008925f,0.020135f,-0.064882f,-0.072724f,0.030818f,-0.075322f,-0.102486f,-0.081992f,-0.140883f,-0.108405f,0.008959f,-0.077248f,0.060820f,0.074685f,0.074766f,0.028183f,0.080946f,0.040295f,-0.055717f,-0.072733f,-0.036419f,0.005635f,0.079414f,0.028153f,-0.096542f,-0.104680f,-0.056508f,-0.123215f,0.038185f,0.021654f,-0.082918f,0.049833f,0.032403f,0.088365f,-0.062359f,-0.134118f,-0.065401f,0.000920f,0.066684f,0.139688f,-0.004632f,0.130627f,0.062454f,-0.092920f,-0.046131f,0.019322f,0.028852f,0.005832f,-0.033428f,-0.088528f,-0.029939f,0.104666f,0.191833f,0.122749f,0.003369f,-0.063738f,-0.082354f,0.044591f,0.036228f,-0.057315f,0.061881f,0.113674f,0.128047f,-0.060184f,-0.015749f,-0.062439f,-0.056279f,0.049880f,-0.060863f,-0.043502f,0.030962f,-0.083850f,-0.021177f,-0.092703f,-0.071405f,0.010931f,0.047130f,0.049976f,0.026913f,-0.036297f,-0.081719f,-0.017157f,-0.000388f,0.058103f,-0.027029f,0.062564f,0.048420f,0.058812f,0.074731f,-0.043654f,-0.017467f,-0.053720f,-0.058171f,-0.110631f,0.053265f,0.084334f,0.015422f,-0.016394f,-0.091517f,0.057795f,0.013826f,0.116179f,0.080580f,0.006014f,-0.102800f,-0.108881f,-0.062021f,0.109241f,0.055278f,0.024953f,-0.032007f,0.037832f,0.053761f,-0.047695f,0.102589f,-0.130130f,-0.047032f,-0.006041f,-0.090794f,-0.007686f,-0.021396f,-0.043668f,0.043273f,-0.046005f,-0.038850f,0.112705f,0.065210f,-0.095293f,-0.016026f,-0.077242f,0.026803f,0.019726f,0.006867f,0.030533f,-0.015979f,0.028394f,-0.105698f,0.012021f,0.045378f,-0.083245f,0.011979f,-0.026242f,0.007417f,0.031988f,0.027994f,-0.044446f,-0.106208f,-0.134750f,-0.132648f,-0.049430f,0.076690f,0.078469f,-0.035210f,0.146534f,0.054286f,-0.038462f,0.024027f,0.041806f,-0.084859f,-0.056426f,-0.074332f,-0.065472f,-0.034818f,-0.005575f,0.062150f,0.100481f,-0.040281f,0.045111f,-0.043135f,-0.075319f,0.093079f,-0.023914f,-0.024757f,0.020097f,0.036103f,-0.001227f,-0.027760f,0.030795f,0.004836f,-0.020095f,0.041979f,0.018314f,-0.089706f,0.048927f,-0.131258f,-0.081218f,0.077671f,-0.014018f,-0.081165f,0.012225f,-0.075823f,-0.002241f,0.020468f,-0.061455f,-0.058905f,0.062747f,-0.103803f,-0.088299f,-0.035548f,-0.028691f,0.075645f,0.079676f,-0.003810f,-0.071746f,-0.033795f,0.007569f,0.090692f,0.055483f,0.072869f,-0.076964f,0.039388f,0.065870f,0.055934f,-0.016758f,-0.102126f,-0.126597f,-0.014198f,-0.021293f,-0.084526f,-0.065940f,0.057501f,0.127360f,-0.011932f,-0.114110f,-0.076059f,-0.069959f,-0.018299f,0.098454f,0.031531f,-0.058306f,-0.167118f,0.079021f,0.047452f,-0.070813f,-0.040341f,-0.080027f,-0.121849f,-0.018516f,-0.072804f,0.077213f,0.037875f,0.010253f,0.019383f,-0.020321f,-0.086927f,0.031566f,0.009621f,-0.009880f,-0.037258f,-0.031913f,0.005916f,0.075570f,-0.059161f,0.039907f,0.077994f,0.052418f,0.136353f,-0.021941f,-0.059896f,-0.093379f,0.037526f,0.020171f,0.001419f,0.065073f,0.046520f,0.036761f,0.095439f,-0.065403f,-0.113584f,-0.096909f,0.001914f,-0.055292f,-0.111031f,0.071464f,-0.073692f,-0.045289f,-0.096161f,0.028100f,-0.052613f,-0.025117f,0.010317f,-0.158491f,0.005951f,0.011693f,-0.021316f,0.117707f,0.044078f,-0.035001f,-0.030911f,0.024310f,-0.087328f,-0.066229f,-0.072875f,-0.106939f,-0.015444f,0.057734f,-0.050782f,0.006230f,-0.072635f,-0.079180f,0.012057f,-0.016199f,0.031874f,-0.088219f,-0.024430f,0.073944f,0.006003f,-0.088157f,-0.008821f,0.103170f,0.100586f,0.041064f,-0.019248f,-0.050874f,0.060693f,-0.019367f,0.010726f,-0.023912f,-0.049490f,0.040554f,0.081694f,0.052213f,-0.084009f,-0.075438f,0.104763f,-0.023024f,0.025862f,0.084562f,0.008704f,-0.067521f,-0.060842f,-0.070522f,0.002488f,0.079854f,0.060958f,0.050769f,0.102177f,0.012672f,0.033150f,-0.098465f,0.009437f,-0.038763f,-0.022763f,0.048332f,-0.058985f,-0.041483f,-0.008041f,-0.073746f,-0.020664f,0.041619f,-0.120146f,0.022049f,-0.023657f,-0.005856f,-0.054670f,-0.093791f,-0.047369f,0.043938f,-0.027136f,0.028986f,-0.004798f,0.020127f,-0.046874f,0.053144f,-0.005634f,-0.045587f,0.044233f,-0.127436f,0.043152f,-0.096678f,0.036012f,-0.028530f,0.067348f,0.024350f,0.093665f,0.035328f,-0.094178f,-0.004112f,0.066888f,-0.083005f,0.107174f,0.106646f,-0.002933f,0.049229f,-0.040045f,-0.046194f,0.035399f,-0.081551f,0.088646f,-0.010425f,-0.101124f,0.003839f,0.002429f,-0.023897f,-0.077819f,-0.046687f,-0.092691f,0.044744f,-0.089837f,0.035824f,0.027163f,-0.089826f,0.061762f,0.061978f,0.059705f,0.033446f,0.088150f,0.092086f,0.031044f,-0.051475f,-0.010439f,0.007021f,0.043003f,0.000846f,-0.043302f,0.058452f,0.022175f,0.049747f,0.079040f,0.073608f,-0.121333f,-0.089661f,-0.006448f,0.007551f,0.025664f,-0.046341f,0.136105f,-0.063650f,-0.019517f,0.079434f,0.039856f,0.069987f,-0.140351f,-0.126775f,0.013441f,-0.027929f,0.048521f,-0.051351f,-0.001153f,-0.006482f,-0.021109f,-0.101515f,0.001722f,0.055716f,0.060803f,0.108601f,0.069157f,-0.016782f,0.105901f,-0.065175f,-0.062699f,0.035042f,-0.050094f,0.057907f,-0.056302f,-0.059648f,0.005298f,-0.054829f,-0.005142f,0.074187f,0.027940f,-0.024195f,-0.028189f,-0.041238f,0.091319f,0.038270f,-0.137064f,-0.116647f,0.038353f,0.185054f,0.073238f,-0.074605f,-0.143322f,0.049962f,-0.024119f,-0.036790f,0.013384f,0.037754f,0.045218f,-0.030652f,-0.029670f,-0.007857f,-0.091988f,0.042218f,0.022725f,-0.021195f,0.066913f,0.097139f,-0.022740f,0.017938f,-0.120183f,0.011354f,0.155699f,0.059942f,-0.037976f,-0.098299f,0.045185f,0.072860f,0.085541f,-0.051847f,0.036831f,-0.050508f,-0.056460f,0.079344f,-0.026865f,-0.025948f,-0.105926f,0.045036f,0.117300f,0.019353f,-0.033274f,0.011356f,-0.036017f,0.009703f,-0.122045f,0.025251f,0.085449f,0.014993f,-0.042055f,0.012345f,-0.048787f,0.062084f,0.104877f,0.012612f,0.090906f,-0.033005f,-0.086469f,-0.047180f,0.087485f,-0.012068f,-0.051447f,0.019755f,-0.037197f,0.030514f,0.060094f,-0.020232f,-0.022576f,0.040604f,0.014300f,0.039817f,0.070760f,0.033314f,-0.142957f,0.004105f,-0.058273f,-0.006804f,-0.013498f,0.006086f,0.018308f,-0.064570f,0.037516f,-0.049826f,-0.114511f,0.017217f,0.003084f,0.016900f,-0.099980f,-0.054794f,-0.003531f,-0.040041f,0.039695f,0.022723f,0.088434f,0.013271f,-0.101501f,-0.003246f,-0.072853f,0.041084f,-0.090655f,-0.101436f,0.007163f,-0.027256f,0.093173f,0.001431f,0.075184f,-0.122040f,0.044378f,-0.116256f,0.001312f,-0.097067f,0.051834f,-0.081885f,0.019466f,-0.044858f,-0.071770f,0.011195f,-0.060357f,0.052462f,0.004541f,-0.059417f,0.071161f,-0.014181f,-0.076448f,-0.153777f,0.007549f,-0.071034f,0.102524f,-0.077759f,0.014366f,-0.127176f,-0.081282f,-0.013503f,-0.056143f,0.124437f,-0.038591f,0.029086f,-0.110010f,0.061354f,0.047509f,-0.112561f,0.006440f,-0.130239f,0.038958f,-0.083014f,-0.004401f,0.045262f,-0.047300f,-0.057492f,-0.110360f,-0.087112f,0.110555f,-0.054068f,-0.054171f,0.041102f,0.032085f,-0.055282f,0.104193f,0.067660f,0.008513f,-0.030667f,-0.051164f,0.114921f,-0.004593f,0.017309f,0.056491f,-0.003783f,0.037520f,0.037284f,-0.034841f,-0.060785f,-0.032042f,-0.073538f,0.073609f,-0.089699f,0.169512f,0.071126f,0.063328f,-0.049274f,0.025463f,0.116306f,0.149475f,0.026375f,-0.077903f,-0.111343f,0.043562f,0.030105f,-0.003346f,0.066685f,-0.012902f,0.064135f,0.100675f,-0.002387f,-0.057631f,0.006110f,-0.007198f,0.113648f,0.010871f,0.078377f,-0.049136f,0.083908f,0.077614f,0.040487f,-0.024462f,0.067976f,-0.076280f,-0.024232f,-0.020692f,0.058572f,-0.015595f,-0.041553f,-0.017489f,0.003850f,0.073162f,0.118423f,0.067646f,0.078916f,-0.021813f,0.051625f,-0.071101f,-0.114758f,-0.043740f,0.033385f,0.069776f,-0.059157f,0.025089f,-0.012478f,-0.007560f,0.024670f,0.025337f,0.091028f,0.023627f,-0.100998f,-0.128160f,0.074928f,0.032191f,-0.085702f,-0.136335f,-0.130814f,0.045875f,-0.060674f,-0.007842f,0.040962f,-0.049735f,-0.058792f,0.043864f,-0.082225f,-0.029317f,0.028089f,-0.005271f,0.089262f,0.102512f,-0.059846f,-0.105401f,-0.025259f,0.013553f,0.076401f,0.056459f,-0.073807f,-0.021494f,-0.048972f,0.091781f,0.004527f,0.073226f,0.068337f,0.068004f,-0.067531f,-0.084285f,-0.101332f,0.009817f,0.019659f,-0.085333f,-0.030430f,-0.037950f,-0.102132f,-0.044667f,-0.064062f,0.039469f,-0.031686f,0.018303f,-0.026744f,-0.057110f,0.082624f,0.034820f,0.038080f,0.109166f,0.063884f,0.008003f,0.000847f,-0.049079f,-0.000696f,-0.005367f,0.102215f,0.141847f,-0.020248f,-0.093043f,0.059181f,-0.010482f,0.075898f,0.060857f,0.019616f,-0.119678f,-0.041775f,-0.022482f,0.030661f,0.013402f,0.036050f,-0.023360f,-0.090693f,0.001159f,-0.087312f,-0.022323f,-0.038747f,0.058948f,0.116561f,-0.026392f,-0.060380f,-0.091224f,-0.075807f,-0.052105f,-0.015089f,0.126418f,-0.001390f,-0.067167f,-0.034836f,-0.086224f,0.033436f,-0.044637f,-0.084026f,-0.031099f,-0.048367f,0.042764f,0.105434f,-0.055557f,0.088651f,0.075290f,-0.121645f,0.143312f,0.078796f,-0.030213f,0.108408f,-0.019503f,0.052400f,-0.018168f,0.057702f,0.011597f,-0.079289f,0.031513f,0.025180f,0.006891f,-0.127219f,-0.100068f,0.080913f,0.072475f,-0.001033f,-0.048558f,-0.085128f,-0.004062f,-0.054296f,0.065472f,0.046035f,0.090834f,-0.015742f,0.007591f,-0.053943f,0.049625f,0.068187f,-0.012916f,0.069237f,0.089439f,0.034313f,-0.072569f,-0.036361f,0.086217f,0.031898f,0.066088f,-0.035271f,-0.105511f,0.007888f,-0.071139f,-0.008558f,0.078291f,-0.057601f,-0.120696f,0.058945f,-0.067892f,0.007314f,-0.076510f,-0.072809f,-0.016697f,0.035451f,0.039878f,-0.031046f,0.039417f,-0.023256f,-0.114938f,-0.125300f,0.041311f,-0.042433f,0.087502f,-0.075474f,0.024952f,-0.004910f,-0.081984f,-0.019432f,0.053093f,-0.054851f,-0.113353f,0.050704f,0.034687f,0.021635f,-0.049204f,0.062664f,0.060811f,0.036372f,-0.017162f,-0.034942f,-0.082336f,-0.045471f,0.088811f,0.089349f,0.025012f,0.045805f,-0.002523f,0.111914f,0.101994f,-0.012510f,-0.002074f,-0.083207f,0.035361f,-0.086004f,-0.023434f,-0.086636f,-0.047968f,0.090847f,-0.083115f,-0.017313f,0.014008f,0.089870f,-0.015553f,-0.063129f,-0.035846f,-0.110518f,0.021446f,0.024843f,-0.114685f,0.123960f,0.042088f,0.055728f,0.043974f,0.014792f,0.027487f,0.039034f,-0.044212f,-0.014206f,0.076463f,0.153734f,0.066080f,0.103274f,0.036034f,-0.004463f,-0.038415f,-0.052862f,-0.049508f,-0.011594f,0.063237f,0.019110f,-0.073680f,-0.104321f,-0.080185f,-0.040907f,0.037377f,0.061098f,-0.044047f,0.062875f,-0.023867f,0.003617f,-0.132665f,0.021986f,0.000402f,0.087558f,0.045667f,0.055564f,0.084012f,0.075446f,-0.009350f,0.071977f,-0.014706f,0.111826f,0.032019f,0.026208f,-0.068118f,-0.016115f,0.052823f,0.076205f,0.080217f,-0.092613f,-0.101313f,-0.008179f,0.016305f,0.015421f,-0.052043f,-0.067278f,0.053100f,-0.073439f,-0.120409f,-0.074177f,0.012131f,-0.058715f,-0.007953f,-0.063031f,0.060522f,-0.024679f,-0.096743f,0.060771f,0.081730f,0.030471f,-0.156464f,-0.042382f,0.117957f,-0.091520f,-0.063123f,-0.103947f,0.011667f,-0.029328f,0.038102f,-0.041300f,0.056027f,0.019208f,-0.033875f,-0.063819f,-0.051147f,0.086262f,0.041809f,0.065039f,0.023415f,-0.053623f,-0.066928f,0.043068f,0.001323f,-0.127866f,-0.026408f,0.052701f,0.122961f,0.161103f,0.190125f,0.108911f,-0.125493f,0.017673f,-0.031016f,-0.110454f,-0.099291f,-0.001459f,0.040571f,0.054956f,-0.028167f,0.053341f,0.002319f,-0.027824f,-0.067644f,0.047706f,-0.015991f,-0.039310f,0.066193f,-0.032234f,-0.098190f,-0.085874f,-0.011904f,0.081553f,-0.000095f,-0.069328f,-0.089893f,0.006030f,0.097905f,0.041470f,-0.064954f,0.073738f,0.026881f,-0.139828f,0.062329f,-0.055707f,-0.111500f,0.027125f,-0.097115f,-0.103910f,-0.135952f,-0.103118f,-0.088976f,0.046473f,0.012261f,-0.002271f,0.031463f,0.108238f,0.040309f,-0.022629f,0.016779f,-0.008433f,-0.112851f,-0.059322f,-0.119513f,-0.008672f,0.060612f,0.023365f,-0.022979f,0.023178f,-0.085516f,-0.000255f,-0.005125f,-0.029544f,0.030244f,0.005223f,-0.095936f,-0.069482f,-0.028265f,-0.074233f,0.071559f,-0.079763f,0.081864f,0.013784f,0.095912f,-0.065960f,-0.055588f,-0.033458f,-0.070927f,-0.002143f,-0.041154f,-0.097183f,-0.098041f,-0.024041f,-0.037642f,-0.037153f,-0.021328f,0.004427f,0.072864f,0.014285f,-0.092456f,-0.054507f,-0.042696f,0.037028f,-0.059840f,0.034265f,-0.085459f,-0.028552f,-0.053899f,0.025193f,-0.083229f,0.032882f,-0.016484f,-0.020403f,0.055988f,-0.007883f,0.042485f,-0.025467f,-0.060445f,0.044683f,0.031615f,0.024709f,-0.033179f,-0.002353f,0.142046f,0.161416f,-0.012824f,-0.019096f,-0.004765f,-0.098126f,-0.133994f,-0.091893f,-0.004345f,-0.001373f,0.113977f,0.091449f,0.015468f,-0.081045f,0.039766f,0.103795f,0.042817f,-0.040646f,0.066456f,0.028379f,-0.033226f,-0.111594f,-0.043167f,0.089070f,0.019622f,0.063268f,0.020578f,0.050327f,-0.017694f,0.013019f,0.023832f,0.037810f,-0.049914f,-0.111930f,-0.136897f,-0.038210f,0.000491f,0.072919f,-0.118449f,0.038762f,0.032576f,-0.030552f,-0.105032f,0.104103f,0.080762f,0.072888f,0.057989f,-0.051182f,-0.119700f,-0.029705f,0.026557f,0.084856f,0.048059f,-0.055688f,0.096367f,-0.022694f,-0.054271f,-0.048923f,-0.088701f,0.000369f,-0.019249f,0.033897f,-0.117438f,0.078627f,0.104444f,0.037584f,-0.061854f,-0.125536f,0.057775f,-0.031989f,-0.053104f,0.047024f,-0.019048f,0.119899f,-0.085601f,-0.028641f,0.039319f,-0.064372f,0.040924f,-0.009120f,-0.074169f,-0.088181f,-0.007374f,-0.058396f,-0.040086f,0.019452f,0.036457f,0.002952f,-0.019303f,0.019724f,0.018920f,0.087888f,-0.036169f,0.042818f,0.068047f,-0.063084f,0.038708f,0.018888f,0.050470f,-0.065562f,-0.031005f,-0.018721f,-0.115868f,-0.035036f,-0.156482f,-0.001366f,-0.047364f,0.049362f,-0.037951f,0.101072f,-0.006912f,-0.038428f,-0.051194f,-0.035263f,0.055489f,0.076339f,-0.114169f,0.060928f,0.081096f,0.077713f,-0.102277f,-0.131065f,-0.090320f,-0.023452f,0.045327f,-0.088202f,-0.028581f,-0.084127f,0.016633f,0.041932f,0.040540f,-0.128063f,-0.026911f,0.045858f,0.018682f,0.067942f,-0.100390f,-0.058106f,-0.087406f,-0.053911f,0.002892f,0.105503f,-0.007685f,-0.036814f,-0.114574f,0.122777f,-0.001021f,-0.009342f,0.060087f,-0.050599f,-0.099690f,-0.084896f,0.039031f,0.058880f,-0.018800f,0.035368f,-0.035511f,-0.005750f,-0.072938f,0.048181f,-0.005268f,0.086263f,0.132345f,0.066344f,0.021300f,0.095592f,-0.081542f,0.037732f,0.105961f,0.100985f,-0.021071f,0.115916f,0.034127f,-0.079264f,-0.097134f,0.033972f,0.012485f,-0.075253f,0.026246f,-0.081827f,-0.005735f,-0.054770f,0.016019f,0.037762f,-0.103268f,-0.032660f,-0.124660f,-0.039110f,0.105112f,-0.066687f,0.107497f,-0.016998f,-0.070567f,-0.125006f,0.031971f,0.013018f,0.104069f,0.009789f,0.026343f,0.039418f,0.042401f,-0.070603f,-0.031312f,-0.023337f,0.075586f,-0.039997f,-0.058912f,0.099386f,0.033064f,-0.011936f,-0.065610f,0.018108f,0.094644f,0.021424f,0.035304f,0.097405f,-0.046371f,-0.098672f,0.053228f,-0.006233f,0.024064f,-0.080654f,-0.030401f,0.146148f,0.106541f,-0.068289f,-0.119671f,-0.083427f,0.085589f,-0.043792f,-0.019840f,0.041717f,0.014184f,0.086539f,-0.017289f,0.088987f,-0.031596f,0.082786f,-0.020341f,0.049181f,-0.022591f,-0.046951f,0.052424f,-0.030679f,0.042920f,-0.074359f,0.045317f,-0.018008f,0.063134f,-0.010405f,-0.145189f,-0.057726f,0.018232f,-0.021994f,-0.112545f,-0.049047f,0.048558f,-0.074094f,0.055210f,0.009672f,0.004797f,-0.116689f,0.046660f,-0.064666f,-0.052333f,-0.143920f,-0.134598f,-0.040157f,0.018513f,-0.111768f,-0.044167f,0.138358f,0.102646f,0.085854f,-0.108601f,0.014018f,0.040204f,-0.051577f,-0.100326f,0.085671f,-0.076422f,-0.001612f,0.035780f,0.091642f,0.046210f,-0.102476f,-0.024268f,-0.021589f,-0.022809f,-0.018658f,-0.008653f,-0.076777f,-0.030428f,0.015692f,0.092741f,-0.023963f,0.041764f,-0.047459f,-0.078792f,-0.044628f,-0.079226f,0.111695f,0.025763f,-0.027760f,-0.118108f,0.067170f,0.093413f,-0.039799f,-0.112353f,-0.038596f,-0.065650f,0.089326f,0.015812f,-0.053410f,0.025106f,0.014078f,-0.056207f,0.110434f,0.050023f,0.005316f,-0.119946f,-0.058649f,-0.087015f,0.051727f,0.048981f,-0.073724f,-0.001601f,-0.018621f,-0.013541f,0.071738f,0.095319f,-0.067569f,0.005101f,0.094528f,0.047019f,0.035676f,-0.109573f,-0.097059f,0.031674f,-0.017696f,0.003200f,0.096096f,0.005593f,0.019873f,0.050500f,0.021995f,0.041927f,-0.034623f,0.133232f,0.040944f,-0.057886f,-0.045307f,-0.116355f,-0.000192f,0.033985f,0.138921f,-0.011478f,-0.038492f,0.046878f,0.078292f,-0.050573f,-0.068793f,-0.044137f,0.012823f,-0.086740f,-0.068187f,-0.034045f,0.004422f,-0.015965f,-0.052101f,0.027387f,0.177696f,-0.031639f,0.007435f,0.014385f,-0.025280f,0.093183f,0.000293f,0.110706f,-0.004547f,-0.041904f,-0.089777f,-0.059511f,-0.080677f,-0.074085f,-0.029431f,-0.090785f,0.098143f,-0.065699f,-0.132049f,0.066401f,0.044304f,0.065757f,0.031870f,0.049444f,-0.130857f,-0.029262f,0.129177f,-0.015279f,-0.064374f,0.016951f,0.051383f,-0.045139f,-0.017557f,-0.105142f,0.085418f,-0.048959f,-0.026336f,-0.104909f,0.061497f,-0.078533f,0.120175f,0.077639f,-0.094304f,-0.094059f,0.036695f,0.063803f,0.050944f,-0.025554f,0.063974f,-0.037328f,0.077808f,-0.120847f,0.021502f,-0.087095f,0.032633f,0.130995f,0.031135f,-0.007137f,0.027751f,-0.105877f,-0.031784f,-0.045546f,0.091017f,-0.097675f,-0.066872f,-0.054260f,0.051251f,-0.044530f,0.043317f,-0.055857f,0.036775f,-0.046811f,-0.050444f,-0.043919f,0.093640f,0.085636f,0.019978f,0.019144f,0.093445f,-0.101004f,0.010392f,0.021417f,-0.080422f,0.096623f,-0.098646f,-0.050850f,0.048734f,0.034809f,0.037911f,0.085369f,-0.023512f,-0.064851f,-0.077504f,-0.020839f,0.066603f,0.076009f,0.086262f,-0.084097f,0.046588f,-0.011347f,-0.039880f,0.086001f,-0.048889f,-0.088722f,-0.012983f,0.052407f,0.052080f,0.091088f,0.031619f,0.118773f,0.169801f,-0.014800f,0.173166f,-0.051712f,0.070805f,-0.077702f,-0.047951f,0.004060f,-0.001892f,-0.028144f,0.049069f,-0.069639f,-0.012095f,-0.020908f,-0.038667f,0.105683f,-0.015105f,0.005168f,0.033628f,-0.063179f,-0.062752f,-0.015653f,-0.058163f,0.111697f,-0.022074f,-0.085336f,0.062983f,-0.074450f,-0.056119f,-0.032398f,-0.003267f,0.105734f,0.079725f,-0.077326f,-0.036224f,0.070047f,0.103395f,0.051855f,0.036458f,-0.061759f,-0.045347f,0.098662f,-0.002095f,0.081574f,-0.016914f,-0.112530f,-0.083994f,-0.077658f,-0.117733f,0.015037f,0.131984f,-0.023049f,-0.006741f,0.094726f,-0.093185f,0.062430f,0.081123f,-0.051687f,-0.006509f,-0.043597f,0.003123f,-0.123743f,0.021514f,0.103329f,0.055399f,-0.055621f,-0.066649f,-0.038386f,-0.069147f,-0.133785f,-0.063988f,0.072644f,0.086703f,0.078739f,-0.053451f,0.019607f,-0.113797f,-0.099796f,-0.054526f,-0.017967f,0.009196f,-0.010504f,0.016968f,-0.029914f,-0.045943f,-0.054560f,-0.103527f,-0.114743f,0.062903f,-0.109257f,-0.043380f,0.096814f,-0.150661f,-0.136693f,-0.046919f,-0.021062f,0.026632f,0.035357f,0.059702f,-0.016999f,0.087973f,0.066415f,-0.016318f,-0.062612f,0.004004f,0.046763f,-0.026711f,-0.115010f,-0.007628f,0.104572f,0.092699f,-0.048074f,-0.022270f,0.090001f,-0.010870f,-0.070930f,0.060589f,0.025570f,0.066952f,0.040394f,0.061671f,-0.112515f,0.066120f,0.021743f,0.008262f,-0.099788f,-0.082032f,0.111899f,0.097188f,-0.094145f,-0.045021f,0.059777f,-0.083297f,0.047942f,-0.037934f,0.011730f,0.092020f,0.036185f,0.023685f,-0.056312f,-0.056698f,0.033065f,0.092350f,0.008132f,-0.031409f,0.063070f,0.001878f,-0.103770f,0.071553f,-0.057266f,0.101479f,0.030163f,0.135029f,-0.067491f,0.044602f,-0.078733f,0.041243f,0.089029f,0.054689f,0.118533f,0.016224f,0.091716f,-0.036570f,0.102350f,-0.036985f,0.068909f,-0.057839f,0.030619f,0.038145f,-0.094030f,-0.064228f,-0.054940f,0.049557f,-0.045468f,-0.008903f,0.078950f,-0.084476f,0.006342f,-0.024824f,0.026947f,0.012418f,-0.052427f,-0.014593f,-0.031425f,-0.105690f,0.033167f,-0.071995f,0.106938f,0.099258f,0.073289f,0.066721f,0.077802f,-0.014622f,0.036658f,0.024000f,0.020346f,-0.046547f,-0.073641f,-0.019055f,-0.047524f,-0.070644f,0.097252f,0.041699f,-0.071343f,-0.050480f,-0.067357f,0.052378f,0.091210f,-0.081148f,-0.108564f,-0.135037f,-0.084655f,-0.001994f,0.028011f,-0.023192f,0.112584f,0.110591f,0.022968f,-0.068788f,-0.099768f,-0.038360f,-0.042282f,0.019477f,-0.034720f,-0.041042f,-0.103000f,-0.082501f,0.093322f,0.020378f,-0.042539f,0.015260f,-0.010085f,-0.032716f,-0.037673f,-0.010967f,0.116374f,0.026754f,-0.073924f,-0.045951f,-0.057457f,-0.029535f,0.088520f,0.008934f,0.023625f,-0.105169f,0.074360f,-0.077128f,-0.011669f,0.062606f,0.043880f,-0.042730f,-0.002949f,-0.044951f,-0.046690f,-0.126120f,-0.015533f,0.059275f,-0.114045f,0.068321f,-0.018041f,0.032021f,-0.048139f,0.088577f,0.127273f,0.017818f,-0.150945f,-0.054101f,0.019765f,-0.013422f,-0.010199f,0.048332f,-0.084823f,0.048301f,0.040394f,-0.095929f,-0.105672f,-0.109452f,0.075720f,-0.084872f,0.023160f,-0.027336f,0.085456f,-0.145617f,0.040524f,-0.100924f,0.042339f,0.030963f,0.008087f,-0.072364f,-0.096073f,0.005628f,0.020172f,-0.164293f,-0.040366f,0.071106f,0.033168f,0.059877f,-0.089967f,-0.035741f,-0.031556f,0.013416f,-0.041302f,-0.089300f,0.076290f,0.101377f,0.121155f,0.106866f,0.091165f,-0.013047f,-0.042961f,0.045870f,0.089654f,0.023152f,-0.026660f,-0.050608f,0.053200f,-0.076916f,0.014603f,0.016278f,0.039344f,0.028082f,0.041379f,0.030426f,0.122198f,-0.068326f,-0.046551f,-0.117382f,0.003140f,0.017267f,-0.043776f,0.017885f,0.051348f,-0.033624f,0.133671f,0.083204f,0.056905f,-0.116864f,0.016109f,-0.103075f,-0.062661f,0.003036f,0.091609f,0.091594f,-0.047220f,0.045359f,-0.029818f,-0.046462f,0.060785f,0.014378f,-0.022020f,0.099386f,-0.073110f,-0.059365f,0.108301f,-0.000721f,0.170770f,0.080626f,-0.002247f,0.055110f,0.107416f,0.106025f,0.080283f,0.122678f,-0.032684f,0.049817f,-0.015946f,-0.077501f,-0.044796f,-0.070001f,-0.068943f,-0.095482f,0.017259f,-0.094988f,-0.017875f,0.021919f,-0.103276f,0.009130f,0.001490f,-0.039036f,0.074803f,-0.054728f,-0.068390f,0.028843f,-0.053383f,0.015417f,-0.123699f,-0.079997f,0.005196f,-0.012796f,0.033251f,0.004444f,0.024388f,-0.063296f,-0.022524f,0.107926f,0.034920f,0.117036f,0.032060f,-0.009840f,-0.032836f,0.084814f,0.090248f,0.102872f,0.057784f,-0.070037f,0.051957f,-0.059596f,-0.053451f,0.042175f,0.045792f,0.030048f,-0.074259f,0.114181f,0.110376f,0.015545f,0.052150f,0.015792f,0.016385f,0.064520f,0.071751f,0.008325f,-0.118833f,0.049004f,0.030989f,0.081211f,0.113619f,0.149059f,0.019089f,0.060183f,-0.021783f,-0.043779f,0.108003f,-0.124381f,-0.034139f,0.013900f,-0.048748f,0.017007f,-0.072151f,-0.007298f,-0.100097f,0.018985f,0.046230f,0.000799f,-0.061206f,0.065746f,0.004617f,0.018613f,-0.026082f,0.086787f,0.033675f,-0.122786f,-0.053719f,-0.062349f,0.012251f,0.032371f,-0.018224f,0.012128f,-0.022702f,0.005586f,0.064059f,0.043633f,0.072431f,-0.006445f,0.153357f,0.082395f,0.041956f,0.103783f,-0.028532f,-0.138243f,-0.059802f,0.010421f,-0.006930f,-0.113371f,-0.041486f,0.009676f,-0.082513f,-0.016677f,-0.049696f,0.108110f,-0.017921f,0.006319f,-0.084353f,-0.064503f,-0.111228f,-0.108614f,-0.091573f,0.009013f,-0.012690f,0.058462f,-0.026455f,0.030924f,0.123222f,-0.029240f,0.032777f,0.044361f,0.092040f,-0.045631f,0.119893f,-0.047134f,0.036863f,-0.020743f,-0.039332f,-0.054315f,0.000854f,0.033149f,-0.016582f,0.063112f,0.031570f,0.029713f,0.026045f,-0.031250f,-0.045828f,0.025323f,0.011122f,0.005172f,-0.029955f,-0.078029f,0.046749f,-0.001927f,-0.052061f,0.031352f,-0.139466f,-0.074288f,-0.029414f,0.064057f,0.083047f,0.090494f,-0.048474f,-0.105547f,0.003343f,-0.036295f,0.091626f,-0.036013f,-0.009192f,0.043200f,0.035299f,-0.022051f,-0.034795f,-0.094617f,0.050472f,0.009955f,0.024589f,0.015259f,-0.025642f,-0.039058f,-0.020931f,0.020468f,0.069739f,0.014658f,-0.030500f,-0.011195f,-0.045773f,-0.034172f,-0.108430f,-0.108615f,0.079982f,0.072235f,0.050051f,-0.092106f,-0.111367f,-0.122793f,-0.068030f,0.116387f,-0.089795f,0.037462f,-0.119265f,0.076446f,-0.030417f,-0.051913f,-0.032575f,0.054777f,-0.082058f,0.078008f,0.069514f,0.037350f,0.060803f,-0.050338f,-0.102306f,0.004874f,-0.094739f,0.078234f,-0.082935f,-0.061913f,-0.156716f,-0.016791f,0.039035f,0.083355f,-0.059340f,0.039859f,0.038607f,-0.013035f,0.107048f,-0.016199f,-0.106715f,-0.052775f,-0.000830f,-0.062087f,-0.112716f,0.037691f,-0.025851f,0.090276f,-0.031606f,-0.071473f,0.004090f,-0.070282f,-0.078799f,0.027693f,0.016267f,-0.070731f,-0.089078f,-0.019064f,0.001126f,-0.095375f,-0.097801f,-0.064536f,0.080911f,-0.028191f,0.083293f,0.059735f,0.024973f,0.111489f,0.060336f,0.019479f,0.022307f,0.036962f,-0.071562f,-0.034304f,0.017769f,-0.053158f,-0.124272f,-0.078540f,-0.066703f,0.072499f,-0.018106f,0.007303f,0.004820f,0.000915f,0.052273f,0.059245f,0.093086f,0.057392f,0.017430f,0.122853f,-0.011146f,-0.084935f,-0.021879f,0.051364f,0.117381f,0.171718f,0.127299f,-0.000383f,-0.013973f,-0.028826f,-0.011255f,-0.062752f,0.070919f,-0.087391f,0.028233f,0.022023f,-0.048368f,-0.078803f,0.013466f,0.075777f,-0.069462f,-0.087925f,-0.004930f,-0.091121f,-0.117815f,0.086977f,-0.113677f,0.041237f,0.059721f,-0.032937f,-0.039946f,0.001996f,-0.103041f,-0.043762f,-0.008336f,0.048898f,0.006986f,-0.030142f,-0.006253f,0.098982f,-0.071514f,-0.022927f,-0.086376f,-0.099110f,0.094686f,0.006497f,-0.103047f,0.091359f,-0.048580f,0.069593f,-0.077354f,0.067475f,-0.066528f,-0.111881f,0.142540f,-0.004844f,-0.108005f,0.109817f,-0.064719f,-0.090622f,-0.031933f,0.058372f,0.009118f,0.004911f,-0.005113f,-0.095897f,0.055756f,0.088488f,-0.003860f,-0.078091f,0.092680f,0.076072f,-0.118809f,-0.005999f,0.046805f,-0.021954f,-0.038960f,-0.027199f,0.035615f,0.010565f,-0.056974f,-0.116793f,0.075298f,-0.003687f,0.028881f,-0.121114f,-0.089565f,0.012088f,-0.028495f,0.013654f,-0.057842f,0.023144f,0.025340f,-0.046119f,-0.020232f,0.076478f,0.054818f,-0.091234f,0.057592f,0.131807f,0.110584f,-0.113917f,0.021902f,-0.043752f,0.035871f,0.039223f,-0.105222f,-0.145352f,0.050266f,0.038873f,-0.031161f,0.014737f,0.048885f,0.079227f,-0.070191f,0.091594f,0.032027f,0.022826f,-0.005520f,-0.051896f,0.052157f,0.103154f,-0.049742f,-0.074797f,0.083807f,0.057193f,-0.088475f,-0.062885f,0.082769f,-0.037344f,0.094710f,0.011031f,0.069540f,0.049893f,-0.036133f,0.040003f,0.060222f,-0.008150f,-0.021901f,-0.085206f,0.010432f,-0.000734f,-0.087965f,0.062531f,-0.087714f,0.067459f,-0.012277f,-0.016357f,0.030199f,-0.114828f,0.051601f,0.071594f,-0.024254f,-0.076933f,0.153025f,0.088337f,-0.018695f,0.088162f,0.026842f,0.066419f,-0.068897f,-0.081677f,-0.000906f,-0.031684f,-0.093678f,0.021976f,0.018175f,-0.057291f,-0.044424f,-0.098901f,0.024276f,-0.095099f,0.067240f,-0.057862f,-0.066083f,0.060735f,-0.022305f,0.020106f,0.024299f,-0.102365f,-0.065125f,0.023121f,0.006547f,0.093734f,0.002015f,0.100232f,-0.037159f,-0.067948f,-0.136666f,-0.075959f,-0.032743f,0.010505f,0.019642f,-0.062298f,-0.018053f,-0.075601f,0.042015f,-0.007633f,-0.078092f,-0.076840f,-0.039470f,-0.004107f,0.032069f,0.017772f,-0.041594f,0.052793f,-0.026955f,0.004500f,-0.053578f,-0.012824f,-0.061903f,-0.103757f,-0.057877f,-0.038763f,0.001417f,-0.079763f,-0.043916f,-0.032368f,-0.035536f,-0.107936f,-0.041346f,0.035310f,0.046961f,-0.052541f,-0.069624f,-0.060462f,-0.094410f,-0.081652f,-0.032580f,0.004786f,-0.015502f,-0.061009f,0.025261f,0.067537f,0.004711f,0.082942f,-0.071450f,0.064649f,0.079836f,-0.073378f,-0.084553f,-0.028528f,0.102685f,0.104525f,-0.079091f,-0.022152f,0.027587f,0.119765f,0.118260f,0.011381f,-0.013414f,-0.009109f,-0.007360f,-0.081951f,-0.066762f,0.065725f,-0.038893f,0.090512f,0.042181f,0.071270f,0.088766f,-0.106641f,-0.073129f,0.061418f,-0.144267f,0.030281f,-0.014477f,-0.055753f,0.049973f,0.054134f,0.056862f,0.061322f,0.020841f,0.022278f,0.059460f,0.080776f,-0.031190f,-0.036212f,-0.027086f,-0.011887f,0.068166f,-0.087334f,0.002296f,-0.090225f,0.010997f,0.039055f,0.009916f,-0.093806f,-0.077635f,-0.030613f,0.030554f,-0.045560f,0.012782f,-0.067891f,0.059991f,0.094502f,0.073781f,0.046252f,-0.013024f,0.004801f,0.030598f,-0.027895f,-0.044335f,-0.096629f,-0.039361f,-0.047270f,-0.035398f,-0.042455f,0.011350f,0.092761f,0.043610f,-0.048399f,0.085626f,-0.019029f,-0.037860f,-0.006792f,-0.082314f,0.014823f,-0.019117f,-0.056113f,-0.038285f,0.078630f,0.127716f,0.106722f,-0.069871f,-0.062803f,0.032207f,0.045163f,0.013235f,-0.055147f,-0.090419f,-0.094974f,0.142498f,0.067245f,-0.026352f,-0.025262f,-0.010991f,-0.014951f,0.011039f,-0.079323f,0.046192f,0.014140f,-0.011979f,0.051463f,0.007991f,0.006680f,-0.048433f,0.058953f,0.080574f,0.019648f,0.086219f,-0.018390f,0.018071f,-0.040488f,-0.113155f,-0.035803f,-0.141205f,-0.100643f,0.022786f,-0.070662f,0.040260f,-0.033566f,-0.008883f,-0.034880f,0.007693f,0.047715f,-0.021550f,0.056192f,-0.086966f,0.039325f,0.103650f,0.028443f,-0.059989f,-0.055143f,0.012015f,0.079133f,-0.066702f,-0.082595f,-0.109347f,-0.109108f,0.077891f,-0.009469f,0.080838f,-0.000188f,-0.032444f,0.109510f,0.026123f,0.077796f,-0.058639f,-0.004374f,-0.012715f,-0.088734f,-0.137186f,0.012504f,-0.130226f,-0.058257f,-0.120278f,0.072884f,-0.023711f,0.013666f,-0.020627f,0.005448f,0.037163f,0.078678f,-0.056980f,0.024080f,-0.060596f,-0.062509f,0.045747f,-0.054906f,0.052562f,-0.017671f,0.076786f,0.101452f,0.067177f,-0.080409f,-0.011737f,0.032933f,0.078002f,-0.186146f,-0.072508f,-0.003366f,0.026709f,-0.014478f,0.008439f,-0.058987f,0.074414f,0.065293f,-0.017508f,-0.023937f,-0.003347f,-0.028459f,0.021922f,-0.044581f,0.034833f,-0.040873f,-0.020612f,0.018421f,0.068119f,-0.088262f,-0.057418f,0.025742f,0.098872f,0.049896f,0.108145f,-0.039535f,0.097874f,-0.019521f,-0.064328f,-0.067349f,0.007672f,-0.108293f,-0.011896f,0.020822f,-0.070989f,0.010987f,-0.023921f,0.088925f,-0.068572f,0.074967f,0.109720f,-0.048406f,-0.024137f,-0.019655f,-0.065000f,-0.050842f,0.063640f,-0.008970f,-0.054970f,-0.078837f,-0.033833f,0.092838f,0.067168f,0.023300f,0.055316f,0.123954f,-0.013561f,0.018306f,0.026120f,-0.080936f,0.051606f,0.075964f,-0.032608f,0.080500f,0.024803f,0.010149f,-0.067361f,-0.086123f,-0.072972f,-0.034363f,-0.035811f,-0.014985f,0.063613f,0.007898f,0.020575f,-0.014861f,-0.017937f,-0.056571f,-0.001694f,-0.020755f,0.061201f,0.005391f,0.027369f,-0.065332f,0.103957f,-0.027800f,0.049182f,0.000925f,-0.012468f,0.077354f,0.046536f,0.090390f,0.088155f,-0.024035f,-0.049574f,0.044094f,-0.008840f,-0.113273f,0.006324f,-0.072036f,-0.026447f,0.063933f,-0.017819f,-0.023331f,-0.091224f,0.023100f,0.079929f,-0.091443f,0.011150f,-0.093329f,0.065227f,-0.038256f,0.015415f,0.044466f,0.066264f,-0.096093f,-0.039922f,-0.045316f,0.028790f,-0.071002f,0.028917f,-0.037424f,0.010162f,0.074008f,-0.118715f,-0.031077f,-0.053263f,-0.001262f,0.096474f,-0.005170f,0.082871f,-0.130163f,-0.097492f,0.026945f,-0.077664f,0.012881f,0.052351f,-0.013938f,0.051206f,0.074966f,0.004384f,-0.046569f,-0.046658f,-0.094061f,-0.111775f,0.025494f,